<?xml version="1.0"?>
<opencv_storage>
<opencv_ml_svm>
  <format>3</format>
  <svmType>C_SVC</svmType>
  <kernel>
    <type>LINEAR</type></kernel>
  <C>1.0000000000000001e-01</C>
  <term_criteria><epsilon>2.2204460492503131e-16</epsilon>
    <iterations>1000</iterations></term_criteria>
  <var_count>2268</var_count>
  <class_count>2</class_count>
  <class_labels type_id="opencv-matrix">
    <rows>2</rows>
    <cols>1</cols>
    <dt>i</dt>
    <data>
      0 1</data></class_labels>
  <sv_total>1</sv_total>
  <support_vectors>
    <_>
      -1.34911358e-01 -3.83858711e-01 -1.31395251e-01 1.42043576e-01
      -8.86376761e-03 -7.66275525e-02 1.20232835e-01 1.23937018e-01
      1.27202868e-02 -1.25772014e-01 -5.49719185e-02 1.40749604e-01
      1.72809735e-01 2.36892417e-01 8.82470831e-02 5.99545203e-02
      -1.49276972e-01 -1.34713292e-01 8.76012594e-02 1.38687287e-02
      1.57788262e-01 -5.40024303e-02 1.09405205e-01 4.51060161e-02
      4.99314852e-02 -1.15364067e-01 -8.19282234e-02 -1.46488130e-01
      -1.35581434e-01 -4.45873529e-01 4.96411584e-02 -2.20322851e-02
      1.55060310e-02 2.27219075e-01 3.50425035e-01 1.91355366e-02
      -7.39374608e-02 -2.17558786e-01 -4.62957621e-02 1.23931073e-01
      -2.27699563e-01 7.75486929e-03 1.56733245e-02 6.30291253e-02
      6.40841573e-02 -2.77717859e-01 -2.35293597e-01 4.42812219e-02
      3.13180387e-02 1.20739870e-01 -2.03978568e-02 4.00228687e-02
      -2.79180389e-02 -1.50636613e-01 7.87016228e-02 -2.62362331e-01
      -2.19922319e-01 -2.23149005e-02 -1.90284342e-01 -1.19838759e-01
      1.09571576e-01 2.20905185e-01 1.71903372e-01 -1.18313350e-01
      -2.68333592e-02 -5.20116538e-02 6.68181852e-02 -1.00370385e-01
      5.27399182e-02 -5.52290455e-02 -1.19581204e-02 -7.51205161e-02
      -2.32832283e-02 6.63398132e-02 -6.58767298e-02 1.68219522e-01
      1.59269691e-01 1.25161812e-01 6.39121681e-02 -6.50990903e-02
      -2.83739832e-03 2.13294588e-02 6.18257858e-02 1.12193905e-01
      -9.98704210e-02 -7.17948973e-02 -1.17147811e-01 -6.12787679e-02
      -1.40231386e-01 -1.54333219e-01 9.86267999e-02 3.98734882e-02
      1.90747470e-01 -9.64842364e-02 1.54548511e-01 -6.51999982e-03
      9.28674713e-02 -3.96684967e-02 -5.18295132e-02 -3.06345820e-02
      9.01598632e-02 1.58438534e-01 9.62842852e-02 2.66211987e-01
      1.20154686e-01 5.55734560e-02 5.96082546e-02 6.94125369e-02
      -3.84326465e-02 -9.60947350e-02 -5.24962842e-02 -1.25684708e-01
      -1.12488605e-01 -8.69481787e-02 6.63645845e-03 6.61149845e-02
      -9.96454805e-03 2.89077908e-01 -1.13192357e-01 4.43305001e-02
      -2.48724315e-02 -1.15104668e-01 -1.38694942e-01 7.93976933e-02
      3.18048000e-02 1.02299899e-01 -4.93607558e-02 -2.13343441e-01
      5.37566803e-02 2.43740320e-01 2.24090815e-02 1.52988592e-02
      3.28554626e-04 7.51632964e-03 -5.16924858e-02 1.76479798e-02
      -6.69464818e-04 -2.15638429e-01 -2.76714146e-01 -8.26535821e-02
      7.94137046e-02 7.22009838e-02 4.98446710e-02 -1.27785310e-01
      4.20003459e-02 1.72066495e-01 -3.29035968e-02 1.13896899e-01
      -1.15396537e-01 8.08584597e-03 -1.43303677e-01 -1.03420511e-01
      1.48033008e-01 -2.51643416e-02 8.17945413e-03 -1.02431834e-01
      1.18659176e-01 1.06984386e-02 -4.38985862e-02 -3.97034809e-02
      3.90903333e-05 -2.34101210e-02 1.61716565e-01 1.46450341e-01
      1.00562647e-01 -8.39515105e-02 1.35232627e-01 7.46575445e-02
      6.64234534e-02 -6.20994531e-02 -1.22116275e-01 -1.35401458e-01
      -2.20278487e-01 1.12723976e-01 -7.14190453e-02 1.05574615e-01
      -6.24614768e-02 -9.41971410e-03 -8.84028897e-02 3.07263613e-01
      1.26731589e-01 -1.84176281e-01 -8.46099928e-02 3.78033929e-02
      7.28171319e-02 1.58250146e-02 -1.57012399e-02 -3.58696543e-02
      1.49821145e-02 -4.02171910e-02 -9.96501818e-02 -7.04778880e-02
      -9.27440152e-02 -8.87425095e-02 -3.78403775e-02 1.21007122e-01
      -1.26682697e-02 1.16076414e-02 1.87059090e-01 -9.19499546e-02
      -1.35383740e-01 1.06411036e-02 -8.19961876e-02 -9.34263915e-02
      9.54564661e-02 6.43672422e-03 2.53088959e-02 -9.57994387e-02
      -3.32051367e-02 -2.56428886e-02 1.63562372e-01 2.00944513e-01
      1.60666332e-02 -5.97197562e-02 6.61032647e-02 -3.02139521e-01
      1.35477766e-01 -1.18888756e-02 2.97374725e-02 -4.43644486e-02
      -1.45986497e-01 8.89500529e-02 1.44119322e-01 -8.32974561e-04
      -7.65261333e-03 -3.27244177e-02 -5.05739264e-02 -1.03432775e-01
      -7.76791945e-02 -2.12954819e-01 -1.82961971e-01 -7.87104815e-02
      1.65941864e-01 1.16459668e-01 -2.13839248e-01 -8.97339657e-02
      3.06277759e-02 5.21039367e-02 8.03759098e-02 2.51918379e-03
      2.33320892e-02 3.18865664e-02 -1.28101096e-01 9.78688151e-02
      -1.07721284e-01 4.28947322e-02 4.66069253e-03 5.26101105e-02
      -8.06249976e-02 -1.12332953e-02 1.09786754e-02 8.31081867e-02
      -2.85031041e-03 -1.14158608e-01 -7.32956529e-02 7.92576596e-02
      1.60677388e-01 -7.15526938e-02 1.79312021e-01 -9.47674885e-02
      -2.05413803e-01 3.66025299e-01 -9.15944502e-02 -5.37308902e-02
      -3.16198729e-02 -5.23260348e-02 8.86371061e-02 -8.16047117e-02
      -5.54943740e-01 -1.73226565e-01 1.10917754e-01 3.74148637e-02
      5.84028400e-02 2.78219469e-02 6.39629662e-02 7.07076630e-03
      -4.44979593e-02 7.28979800e-03 -4.55442891e-02 -3.21601257e-02
      9.37182531e-02 -5.91441393e-02 -6.47979006e-02 -7.58799016e-02
      -1.38059855e-01 -1.71231218e-02 -9.94636416e-02 1.33673966e-01
      1.79636821e-01 -8.42568427e-02 -1.53745890e-01 -2.42980897e-01
      -2.57485062e-01 9.34091490e-03 -6.66469559e-02 -8.66355002e-02
      -5.91150559e-02 5.65819591e-02 -2.92880666e-02 -7.68568274e-03
      -3.14216921e-03 -1.98695548e-02 -3.24636661e-02 -1.57322928e-01
      -8.03937688e-02 2.39029191e-02 2.00912073e-01 4.79688216e-03
      1.72147658e-02 -2.03161165e-01 -1.66739151e-01 -1.48423746e-01
      -2.42182128e-02 1.83261156e-01 -8.95737205e-03 -2.25889459e-02
      -1.21345297e-01 -1.71476126e-01 -1.46032274e-01 -1.96472749e-01
      -4.08345535e-02 1.48588745e-02 -1.63929313e-01 7.31071383e-02
      -3.43881324e-02 5.71838617e-02 -1.90720752e-01 1.19572110e-01
      -1.58051863e-01 -2.48528849e-02 1.68137014e-01 2.76146233e-01
      1.07223168e-01 1.67395383e-01 1.18350433e-02 8.40071961e-02
      -4.61854860e-02 -1.23788498e-01 3.33466358e-03 -6.24943636e-02
      7.12431818e-02 8.23779330e-02 2.76691560e-02 -8.40275288e-02
      3.58998924e-02 1.10391872e-02 7.04939812e-02 4.92728665e-04
      3.13242301e-02 5.01355603e-02 -1.47781730e-01 5.83634004e-02
      -1.78324297e-01 -1.37606084e-01 2.99775843e-02 -8.15093741e-02
      -9.00062993e-02 9.66539159e-02 2.09068626e-01 1.79863766e-01
      -1.55761549e-02 -1.81957781e-02 -1.10990033e-01 1.21256016e-01
      -2.00955525e-01 -2.31827609e-02 -6.61847442e-02 -6.41742051e-02
      -1.48699954e-01 4.59470041e-02 -2.84986913e-01 -1.55704334e-01
      1.29746601e-01 1.27109051e-01 8.34256113e-02 1.58129539e-02
      -1.74951121e-01 3.70326638e-03 1.33623436e-01 -1.30380064e-01
      -1.35775700e-01 -8.49908069e-02 -1.73676282e-01 -5.56972958e-02
      -3.50388214e-02 2.37821937e-02 2.58352101e-01 -6.31938726e-02
      -2.39938870e-02 -2.51250323e-02 -6.08538277e-02 -6.59282207e-02
      -2.26398706e-02 -6.76438436e-02 5.19719608e-02 -1.10764029e-02
      -7.15888105e-03 5.95141610e-05 -1.16994426e-01 1.21259786e-01
      1.52797237e-01 1.07945800e-02 4.53624204e-02 3.54031753e-03
      9.88400131e-02 1.19775847e-01 -4.23386780e-04 -1.06556386e-01
      -1.31888047e-01 -1.54430857e-02 -4.27983813e-02 -1.48378164e-02
      -8.76624230e-03 -1.84362933e-01 1.65475979e-01 1.31496862e-01
      1.37782857e-01 7.48064965e-02 8.28499123e-02 -1.01795807e-01
      1.18407711e-01 -3.10927909e-02 6.51165619e-02 2.19320022e-02
      -7.83767849e-02 6.71146140e-02 9.74423811e-02 7.44496882e-02
      -1.17926300e-02 4.99317236e-02 -9.73241627e-02 7.79453963e-02
      -5.53294197e-02 -3.90975550e-03 -2.00250953e-01 -2.87459940e-01
      -1.04452036e-01 3.15291993e-02 6.06026128e-03 6.46736473e-02
      -1.46560997e-01 7.27523267e-02 6.81770965e-02 7.85166249e-02
      8.63463357e-02 5.86146377e-02 1.27011582e-01 2.06901394e-02
      8.41543004e-02 5.66892959e-02 9.93284732e-02 -1.92001030e-01
      -5.41213974e-02 8.47214162e-02 1.14059567e-01 -2.08384115e-02
      -9.52872075e-03 9.18249972e-03 -2.60701850e-02 5.74532617e-03
      -1.65378973e-01 -2.56336093e-01 -2.50672877e-01 -6.67544156e-02
      -6.75725192e-02 9.20627192e-02 1.88822091e-01 2.23042727e-01
      5.59599185e-03 -1.03773922e-01 -1.94336697e-01 -1.02059757e-02
      3.81423198e-02 -4.40149866e-02 1.05782291e-02 3.12800221e-02
      -1.50952160e-01 -7.91690722e-02 -1.78511292e-01 -1.84598580e-01
      1.57280803e-01 1.40996933e-01 4.15923335e-02 8.71221721e-03
      4.18521427e-02 -1.11484960e-01 5.63669670e-03 -1.58627719e-01
      -5.51550463e-02 -6.98913261e-03 -6.81667402e-02 -3.61696109e-02
      6.26941770e-02 2.46649776e-02 8.31828639e-02 1.00508153e-01
      -1.64513402e-02 4.40334082e-02 7.81237781e-02 7.66785443e-02
      -3.85688851e-03 1.39097527e-01 -8.95019919e-02 1.97930142e-01
      5.96798509e-02 1.11245073e-01 8.77726898e-02 1.49706304e-01
      1.35010362e-01 5.33171259e-02 4.71557379e-02 4.50606905e-02
      -2.78617255e-02 1.22696213e-01 -6.63467720e-02 1.00549109e-01
      1.37723275e-02 -2.21802462e-02 9.98363495e-02 1.05450518e-01
      5.63990586e-02 1.51711814e-02 -1.06553864e-02 7.89059028e-02
      1.09630525e-01 5.26028275e-02 -1.45713016e-01 -2.47293487e-01
      1.42655456e-02 4.05527726e-02 9.51866433e-02 -1.85607269e-01
      -1.38093814e-01 1.59596995e-01 9.02132466e-02 1.51726604e-01
      1.82567444e-02 5.63046671e-02 5.94118610e-02 -2.32115053e-02
      6.81667626e-02 7.60702193e-02 -1.47246174e-03 2.54491884e-02
      6.37231744e-04 5.49447089e-02 8.64441041e-03 -6.16066083e-02
      7.32393637e-02 7.15211704e-02 -1.55231759e-01 5.73544167e-02
      2.35302597e-02 -1.50227174e-01 -1.10148452e-01 -8.55857600e-03
      1.46084055e-01 -1.74224284e-02 -6.99454769e-02 -4.74586245e-03
      2.21166871e-02 4.88267317e-02 1.28544644e-02 1.51680282e-03
      6.48187799e-03 -5.63596189e-03 9.00883004e-02 1.21236853e-01
      -2.76311440e-03 7.78868943e-02 1.23540699e-01 9.86537561e-02
      5.86611517e-02 -4.13847640e-02 7.30206892e-02 1.28742550e-02
      -4.39363346e-02 2.37728983e-01 1.38929319e-02 9.53219235e-02
      -6.73546791e-02 -1.09811328e-01 1.16197847e-01 -6.47522360e-02
      -7.42817074e-02 5.24442233e-02 5.68367206e-02 -1.52739566e-02
      2.58669239e-02 -5.71856238e-02 2.07743466e-01 9.07456204e-02
      6.45450056e-02 -2.36970950e-02 -7.61525854e-02 -1.45814478e-01
      -3.29030156e-02 1.83924474e-02 1.39955394e-02 -1.91837158e-02
      -7.41341040e-02 -6.81735501e-02 4.96657118e-02 6.29438087e-02
      1.21570431e-01 1.87245101e-01 3.42948455e-03 -1.65533960e-01
      -1.14633076e-01 8.67599342e-03 1.11655943e-01 -9.35226902e-02
      3.08699422e-02 1.51738552e-02 1.75190285e-01 -1.88146494e-02
      3.79932411e-02 1.01741396e-01 7.73295313e-02 -2.87478477e-01
      -6.52621537e-02 -2.08242536e-02 -3.71883065e-02 -8.06649402e-02
      -6.21813424e-02 -1.21414736e-01 -1.07115768e-01 -2.66841780e-02
      -1.28125250e-01 1.40929997e-01 -8.76172706e-02 9.02571082e-02
      9.23073068e-02 -9.00963247e-02 -1.45656168e-01 -8.36895630e-02
      -1.95165202e-01 8.23540241e-02 -9.19446796e-02 1.30630255e-01
      9.63483453e-02 1.90000266e-01 -7.58898407e-02 2.74996236e-02
      -6.79652169e-02 -1.29699275e-01 -3.43317002e-01 1.16134249e-01
      1.39211342e-01 8.35699812e-02 -6.34775311e-02 1.00329541e-01
      -3.16782407e-02 -3.11013311e-02 7.13150948e-02 1.26063496e-01
      1.69184387e-01 -7.47083947e-02 6.37554899e-02 5.38122505e-02
      9.89251137e-02 4.54356931e-02 6.81071281e-02 1.04574926e-01
      7.57484697e-03 -9.81361717e-02 -1.41347975e-01 -6.38022646e-02
      1.63120050e-02 1.52281225e-01 1.68881550e-01 1.67138770e-01
      9.54461694e-02 1.54326120e-02 -8.25541764e-02 1.01869226e-01
      -6.52988404e-02 -6.31430820e-02 8.68070964e-03 -1.32734720e-02
      5.75610846e-02 -9.78926271e-02 -5.80371581e-02 2.51356184e-01
      -6.05078554e-03 8.55152979e-02 1.37830511e-01 1.89046353e-01
      6.79896846e-02 9.73875821e-03 -3.79221439e-02 3.73682491e-02
      -1.03292748e-01 -3.20194922e-02 1.18183024e-01 2.50789598e-02
      1.88771471e-01 2.00368211e-01 -1.09896669e-02 3.32887396e-02
      4.24052700e-02 8.74622315e-02 1.19610623e-01 -6.07242398e-02
      -2.65958551e-02 1.62501976e-01 -2.12662816e-01 7.41845462e-03
      -2.65559219e-02 -4.67333570e-02 5.60993552e-02 4.72816825e-02
      6.59461915e-02 1.19534485e-01 1.42614260e-01 -1.33244127e-01
      4.58274316e-03 -7.53631815e-02 8.53311121e-02 -1.77366957e-01
      3.82836871e-02 -5.67086749e-02 -2.43206546e-02 9.78038311e-02
      1.28391087e-01 7.26656010e-03 -1.13091711e-02 -4.22005244e-02
      8.97835195e-02 -7.77461678e-02 1.85337976e-01 1.06667399e-01
      -7.31828138e-02 -3.21089812e-02 6.56727254e-02 2.99712904e-02
      -2.03525480e-02 -1.90738797e-01 8.01430345e-02 4.24486697e-02
      7.65358582e-02 1.12372480e-01 2.16754586e-01 1.75030783e-01
      8.98538828e-02 -1.32960640e-02 4.46112603e-02 -5.00622913e-02
      -3.35939899e-02 -4.49220324e-03 5.66027239e-02 8.83959532e-02
      8.33950117e-02 8.39139372e-02 7.65141507e-04 -7.69951046e-02
      -1.69329271e-01 -6.24679290e-02 3.45230773e-02 -4.76709865e-02
      4.99304943e-02 -8.52523297e-02 9.52360332e-02 9.71501693e-02
      3.59106287e-02 2.45572850e-02 5.04177660e-02 -7.84877390e-02
      -1.01976715e-01 -2.25158036e-03 -4.88073863e-02 5.81911467e-02
      -2.78043933e-02 -1.56680495e-01 1.01461569e-02 -1.16054446e-01
      -7.51982853e-02 1.57174602e-01 1.95395157e-01 7.11048394e-02
      -7.97497947e-03 -1.10117726e-01 -1.80373177e-01 -8.19382221e-02
      -8.87346938e-02 -2.94653531e-02 -1.20024472e-01 -1.42785907e-01
      -5.02908044e-02 2.75768172e-02 6.71711043e-02 -5.44542074e-02
      9.04469471e-03 3.89319956e-02 -6.73317388e-02 -1.03640407e-01
      -1.84935868e-01 -1.01757996e-01 4.13207412e-02 3.34751494e-02
      -7.12022334e-02 2.44552107e-03 -1.40340731e-01 -1.97814088e-02
      1.21144108e-01 7.08945170e-02 2.62140110e-02 -6.88587576e-02
      4.08667140e-03 -2.02253256e-02 6.58328682e-02 1.26492511e-02
      1.23074025e-01 6.68840110e-02 2.00425065e-03 9.62050930e-02
      7.70249143e-02 2.08692867e-02 -1.11759596e-01 7.08396658e-02
      2.72920374e-02 5.67813851e-02 6.92423061e-02 -9.15338174e-02
      -5.99611290e-02 1.57419488e-01 2.77932379e-02 7.91468769e-02
      -1.36654794e-01 -9.42071080e-02 5.36348037e-02 1.42788151e-02
      9.04178917e-02 2.35683713e-02 1.35915115e-01 9.92912874e-02
      -7.72217810e-02 9.96124819e-02 1.00543939e-01 -2.55435482e-02
      5.27412407e-02 9.19139609e-02 8.60078707e-02 2.53101680e-02
      -9.80086252e-03 -1.51738271e-01 1.51345089e-01 -5.52556552e-02
      3.03096436e-02 1.33899013e-02 -6.50846958e-02 -5.13628721e-02
      4.09441926e-02 1.54946402e-01 8.25137123e-02 -4.26521040e-02
      -3.06940582e-02 9.41409613e-04 -2.68117841e-02 7.78390542e-02
      8.03201497e-02 7.32441843e-02 -5.56949675e-02 3.34147103e-02
      -2.15495750e-01 -4.06326205e-02 -4.99825142e-02 -5.89111041e-05
      -6.07744791e-03 -4.12604492e-03 5.40474877e-02 1.21228956e-01
      -5.36922999e-02 1.73898390e-03 9.60053951e-02 3.00266929e-02
      -1.80142045e-01 1.57729145e-02 -9.23222750e-02 -6.45945743e-02
      -1.51627913e-01 -5.33064269e-02 1.55049652e-01 -6.15576059e-02
      -2.35230271e-02 2.32865624e-02 9.88006443e-02 1.06180385e-01
      1.23402707e-01 -6.80653146e-03 -1.50044393e-02 -1.88010205e-02
      -1.47353441e-01 1.33689195e-02 -6.86669489e-03 -1.99050531e-02
      -1.49461515e-02 3.80661115e-02 6.19945973e-02 5.73297292e-02
      3.07218842e-02 9.44211408e-02 2.81416029e-01 -1.11552745e-01
      -9.20732096e-02 -8.89186040e-02 1.13580734e-01 9.60350260e-02
      2.01823306e-03 -8.22957512e-03 -5.38793094e-02 5.42697944e-02
      2.13557552e-03 4.25673649e-02 1.30996332e-01 1.67241976e-01
      -2.32833833e-01 -6.24038950e-02 -5.55254743e-02 -3.04020327e-02
      -8.58642757e-02 -8.88234004e-02 -5.67008816e-02 -1.02240648e-02
      2.29060091e-02 -5.26163317e-02 8.26246291e-03 -4.34957109e-02
      7.81063810e-02 2.70674136e-02 3.26582007e-02 3.41494195e-02
      -6.28516227e-02 -5.56190349e-02 1.29328787e-01 -1.15415767e-01
      -4.28001136e-02 9.76259783e-02 -1.39298150e-02 -5.77240512e-02
      1.83434971e-02 -1.76176950e-02 -1.29958570e-01 -3.19025844e-01
      -4.27407250e-02 -6.38134638e-03 -9.40431058e-02 -7.51866400e-02
      -6.42080531e-02 2.19828673e-02 1.16000950e-01 -2.07926845e-03
      -1.37032911e-01 2.73386966e-02 -7.79577643e-02 2.62987893e-02
      3.39624062e-02 1.51406273e-01 -5.93937077e-02 -8.47942233e-02
      -9.63588580e-02 6.12341985e-02 3.14183533e-02 2.64827185e-03
      -9.43377912e-02 -1.23325884e-01 1.24258533e-01 6.09784164e-02
      7.13919103e-03 -1.04037873e-01 -3.33799660e-01 -1.37552135e-02
      1.56031758e-01 2.64645033e-02 -7.08244741e-02 -8.34549442e-02
      5.77066466e-02 1.71478495e-01 -2.68444456e-02 -8.87421519e-02
      1.35193080e-01 1.43095404e-01 6.78613931e-02 4.93337177e-02
      -4.00131159e-02 4.38602753e-02 1.84190303e-01 6.71769157e-02
      3.74782458e-02 -1.20762236e-01 -7.95855001e-02 -8.74692947e-02
      -4.48956899e-02 4.57753427e-02 1.50205880e-01 4.56733629e-03
      1.36164099e-01 1.22152150e-01 4.36382554e-02 1.68271959e-01
      -2.02649739e-02 -1.35782719e-01 4.08511125e-02 -9.58853811e-02
      1.61221683e-01 -8.72095153e-02 -1.32715687e-01 6.19258396e-02
      -5.51109500e-02 8.33267272e-02 8.12833384e-02 1.91430986e-01
      -6.08021319e-02 3.06325126e-02 5.29018752e-02 7.83439428e-02
      -8.57916772e-02 3.29386219e-02 2.69768648e-02 7.21249031e-03
      9.56666470e-02 1.15427963e-01 7.98176322e-03 3.52088399e-02
      -2.47030929e-02 1.19518548e-01 2.64454335e-02 -2.34547034e-02
      1.05539680e-01 1.37405485e-01 -4.90482822e-02 2.49502346e-01
      7.78171569e-02 -9.25220922e-02 -1.98469967e-01 -6.29536211e-02
      8.69165361e-02 1.42577454e-01 1.28777549e-01 -3.05938870e-02
      8.83029997e-02 -2.81360019e-02 1.15429573e-01 1.67802304e-01
      1.42427072e-01 1.69629559e-01 1.48561433e-01 1.11256331e-01
      6.96887746e-02 -1.58078559e-02 -2.94308737e-02 1.13719299e-01
      7.57812560e-02 -2.34970614e-01 -6.63759261e-02 1.13071389e-01
      -6.49452358e-02 7.18520805e-02 -5.69589324e-02 7.29213431e-02
      -2.08788272e-02 -5.61040156e-02 1.45314783e-01 8.46371502e-02
      -5.54834530e-02 -7.06176236e-02 8.18376914e-02 -1.11138992e-01
      1.14397854e-01 -5.77613413e-02 -3.73624116e-02 -1.01165742e-01
      -2.79484484e-02 -9.20294225e-02 1.11132272e-01 1.03611946e-01
      6.64873421e-02 -4.39909808e-02 -1.48523062e-01 -1.35996416e-01
      -4.74178903e-02 -1.82236172e-02 5.79515025e-02 -3.73397470e-02
      3.13654914e-02 -1.12256035e-03 2.43062973e-02 -1.02712497e-01
      -1.02967091e-01 4.28161994e-02 -4.11041453e-02 -6.17286190e-02
      -2.02858791e-01 -1.38422504e-01 -1.30206227e-01 -9.89114027e-03
      5.88288829e-02 -4.76332232e-02 5.11747412e-02 -1.27795916e-02
      -7.46707339e-03 1.22348092e-01 8.05820674e-02 -2.10914686e-02
      -1.56735525e-01 -9.32496190e-02 1.44558670e-02 -4.56096865e-02
      -7.62373954e-02 2.20449306e-02 -7.58055970e-02 -3.34382546e-03
      5.77563904e-02 -6.19713664e-02 6.45452514e-02 -1.04929537e-01
      -8.39248002e-02 3.94845754e-02 3.38765644e-02 -7.60027468e-02
      7.49639496e-02 2.01970767e-02 -1.67856570e-02 -8.16133514e-04
      -2.60291658e-02 -1.23547517e-01 -2.89167017e-02 1.77971181e-03
      1.77274689e-01 1.20268971e-01 1.26736518e-02 -5.90529479e-02
      -3.52383070e-02 -1.15739956e-01 3.43671329e-02 9.95287448e-02
      -1.97753813e-02 -2.77844109e-02 6.72773719e-02 4.38798815e-02
      1.47033762e-02 -3.06822658e-02 -2.44261213e-02 1.45319998e-01
      -6.51307553e-02 -1.75734553e-02 7.24721327e-03 -4.68197837e-02
      -9.96682346e-02 -5.18010631e-02 -1.18595682e-01 4.17802893e-02
      -1.09990083e-01 6.65047094e-02 -2.42375080e-02 -9.40377787e-02
      1.04738683e-01 6.75581619e-02 8.78327116e-02 -9.50829312e-02
      -5.03843091e-02 -1.41548783e-01 1.76934436e-01 2.54423684e-03
      1.92000456e-02 4.54737842e-02 -4.68367115e-02 -5.41870557e-02
      1.02859333e-01 -3.48144732e-02 1.02910958e-01 8.09525326e-02
      9.71656665e-02 -2.60612220e-01 8.59451890e-02 -8.08454081e-02
      -1.36231676e-01 -7.89459199e-02 9.49342400e-02 8.81067961e-02
      -7.79669508e-02 -1.26810698e-02 -4.75150533e-02 6.97716475e-02
      1.04848251e-01 1.60604000e-01 -1.52366430e-01 -4.60063927e-02
      -7.35476613e-02 -3.30197513e-02 4.11230810e-02 7.91665837e-02
      8.39918107e-02 7.59100541e-02 -5.32531664e-02 7.77430385e-02
      8.99527520e-02 -4.11191210e-03 -4.81765112e-03 -5.83046004e-02
      -1.00536114e-02 1.23135210e-03 -6.31778091e-02 -5.01169190e-02
      2.61531204e-01 8.30000713e-02 -5.42356409e-02 4.00421880e-02
      -2.40400620e-02 6.14878535e-02 1.79972410e-01 -6.51174365e-03
      -4.87721413e-02 -2.31672823e-02 -1.73969835e-01 1.56272650e-02
      5.97458743e-02 -2.22602077e-02 -1.03451163e-01 -1.19044594e-01
      1.51372785e-02 1.02894761e-01 -6.62892014e-02 2.97454540e-02
      3.37163880e-02 7.85003677e-02 1.27180452e-02 -7.01901689e-02
      1.44166157e-01 -5.38935047e-03 4.75138724e-02 1.42020166e-01
      4.13710997e-02 -1.22921877e-01 -5.40034007e-03 -8.95260125e-02
      -9.32495892e-02 -6.57824427e-02 7.27832541e-02 -3.15285735e-02
      -2.05241200e-02 -5.09332418e-02 -3.67821082e-02 -5.89853898e-02
      -2.68924795e-02 -1.43240169e-01 2.71933135e-02 6.23399355e-02
      1.03904657e-01 -3.30429524e-02 3.13759744e-02 1.30681051e-02
      2.13139355e-02 7.90641457e-02 9.39577818e-02 -9.95031297e-02
      -6.00683168e-02 4.82590273e-02 1.35981694e-01 9.48130339e-02
      -8.37309472e-03 -1.40231505e-01 -1.06783636e-01 9.69676524e-02
      -1.41121909e-01 1.51325226e-01 -1.22323245e-01 -3.13118279e-01
      5.28146699e-02 -3.82350869e-02 5.09254150e-02 1.15740988e-02
      1.01005301e-01 1.44193903e-01 2.54104901e-02 -4.88892756e-02
      1.01388052e-01 2.17765477e-02 6.95196092e-02 4.06926014e-02
      6.07898012e-02 8.58125240e-02 6.07690448e-03 -1.33798406e-01
      -2.18821689e-02 1.53738603e-01 -1.60229862e-01 -8.11034217e-02
      2.35319305e-02 7.26029603e-03 2.43315205e-01 -4.28764261e-02
      2.29681563e-03 -6.84727803e-02 -2.06609100e-01 -6.31109625e-02
      2.81449497e-01 -8.59359652e-02 -1.54990882e-01 -2.38985587e-02
      -2.00819105e-01 1.71001069e-02 -6.56467676e-02 -1.61739737e-01
      5.91497682e-02 -7.76095092e-02 -3.38496193e-02 -1.54745355e-01
      1.41780853e-01 -1.68772355e-01 4.32174769e-04 -2.03727558e-02
      -1.18714653e-01 1.02332212e-01 -4.41624001e-02 -5.48778512e-02
      -3.99976261e-02 3.31205837e-02 -2.16283426e-02 -1.77066810e-02
      -8.49198643e-03 -1.15377195e-01 -4.01225016e-02 2.36680597e-01
      -8.11186582e-02 -1.28834769e-01 -6.34849146e-02 -7.61905164e-02
      1.19091712e-01 -8.31277594e-02 -1.95906222e-01 -1.03810951e-01
      -1.11603923e-01 1.48764983e-01 -4.85823909e-03 9.28605795e-02
      -2.00109407e-01 -7.60908276e-02 -8.95691067e-02 -9.31001920e-03
      -6.88610459e-03 -1.35750128e-02 1.29819050e-01 7.13200942e-02
      3.69467065e-02 3.90508212e-02 3.10082529e-02 2.81525329e-02
      -5.57456771e-03 -1.35490419e-02 -3.43212262e-02 2.48993725e-01
      1.76118225e-01 -5.65931052e-02 1.49569690e-01 2.51567602e-01
      -1.23855018e-03 3.32982205e-02 -9.56752598e-02 8.43997300e-03
      2.12460116e-01 2.51668960e-01 1.13325477e-01 3.43950316e-02
      2.75051501e-02 2.72365808e-02 -1.91357415e-02 -3.52025814e-02
      -3.32211703e-02 7.03658462e-02 9.68696456e-03 1.91819146e-02
      1.69688687e-02 -1.49698416e-02 -4.12749797e-02 1.16844751e-01
      -6.43514916e-02 3.59919332e-02 -4.25955206e-02 4.97148409e-02
      1.32798515e-02 -3.72638963e-02 -1.03912130e-02 -5.33907637e-02
      -1.27665490e-01 -3.31346206e-02 1.45253956e-01 -7.36374408e-02
      -9.11743417e-02 -1.64352611e-01 -3.42517979e-02 4.87773605e-02
      3.82924341e-02 4.72819284e-02 -6.32161461e-03 -9.79653895e-02
      4.20143194e-02 -3.06561887e-02 1.18604645e-01 9.06180814e-02
      3.85386869e-02 -9.95474681e-03 -3.22373956e-02 -8.03703144e-02
      -1.88407805e-02 -4.95398119e-02 5.01741543e-02 -3.39789763e-02
      -2.83165295e-02 -1.57137923e-02 -1.23157360e-01 -8.61035213e-02
      -5.90630583e-02 2.13128086e-02 1.41875884e-02 -8.34018737e-03
      -3.14251594e-02 -4.04801257e-02 8.07140488e-03 -3.60633456e-03
      -8.50022435e-02 -2.76616924e-02 -5.14228083e-02 7.49425264e-03
      5.85542358e-02 1.60555482e-01 1.38493225e-01 3.04056443e-02
      2.00014422e-03 -3.36494073e-02 -9.04422253e-02 -1.59708738e-01
      -6.75841421e-02 -5.96794859e-02 3.57269906e-02 1.40276134e-01
      -4.73286100e-02 -8.22105184e-02 1.04935706e-01 -5.44564761e-02
      -8.59556794e-02 -4.71295528e-02 5.90646826e-02 -8.62080008e-02
      -1.48396775e-01 -1.61958802e-02 -1.55455489e-02 -7.24318624e-02
      3.58788623e-03 8.08410048e-02 -4.20724675e-02 1.07270971e-01
      1.26227126e-01 4.94774058e-02 1.95617285e-02 -3.30280848e-02
      -6.24202453e-02 -2.23766379e-02 -1.20640747e-01 9.83164385e-02
      9.11701694e-02 7.69286603e-02 9.77317169e-02 5.96396215e-02
      2.21239170e-03 -2.66811289e-02 -1.36652052e-01 3.20875719e-02
      -2.15469878e-02 1.92892566e-01 -1.09415263e-01 -4.41330224e-02
      5.18013127e-02 6.45963103e-02 -7.85214305e-02 1.22019723e-01
      -8.99423435e-02 -7.21106306e-02 -6.09799474e-02 -7.02607930e-02
      4.43890318e-02 1.50575340e-01 1.87589660e-01 -6.37982786e-02
      -7.01946989e-02 -1.03698425e-01 -2.32672342e-03 1.06725365e-01
      7.56959468e-02 5.30709699e-02 1.15589209e-01 -4.54991823e-03
      4.06349003e-02 -1.11979004e-02 1.20392829e-01 1.33799791e-01
      -8.59690458e-02 1.19968001e-02 1.46700228e-02 1.45189799e-02
      7.15662539e-02 8.88489485e-02 5.43212742e-02 -6.00574771e-03
      1.06310003e-01 -1.31626083e-02 3.07287164e-02 1.01846538e-01
      5.69111668e-02 5.75787295e-03 9.24171787e-03 -1.00663766e-01
      -1.83807105e-01 -1.76245943e-02 2.94965468e-02 1.64029654e-02
      -5.85581213e-02 5.55243418e-02 9.74985361e-02 8.55717137e-02
      1.13966309e-01 6.53412864e-02 6.77737743e-02 1.86237190e-02
      -4.80278395e-02 4.02339511e-02 -8.58060420e-02 -1.69012696e-01
      8.36955197e-03 -9.14783869e-03 -8.45729560e-03 1.36813223e-01
      5.51971570e-02 -2.72779558e-02 2.06715301e-01 1.08824141e-01
      -5.95793165e-02 -2.74001323e-02 -5.24268709e-02 -1.09599553e-01
      -1.16183996e-01 -8.05426762e-02 -9.90343094e-02 -1.58821810e-02
      7.90064931e-02 1.38064295e-01 4.19510230e-02 -3.44917066e-02
      -1.17031261e-02 -5.16891014e-03 5.94018362e-02 -1.46609675e-02
      -1.66698918e-01 -1.17533967e-01 3.95047739e-02 1.77323714e-01
      -1.13740660e-01 -1.32539704e-01 -1.14851817e-01 -7.91834071e-02
      -8.13745260e-02 -8.89430866e-02 1.11923859e-01 -4.50905897e-02
      -1.18734213e-02 -8.42653960e-02 -5.15194982e-02 5.34966066e-02
      1.93204149e-04 9.47212353e-02 1.57731310e-01 6.35903552e-02
      -1.87418107e-02 7.25744888e-02 -4.43445891e-02 1.74906775e-01
      1.21095024e-01 1.24341667e-01 5.88532500e-02 -3.46918888e-02
      -1.39034659e-01 -4.03470583e-02 3.17339115e-02 -7.33940229e-02
      -8.93839300e-02 -3.44767654e-03 -2.70306952e-02 7.79960155e-02
      -1.91930965e-01 -3.54849063e-02 -1.20207243e-01 -2.20546097e-01
      -2.61046607e-02 -3.95425670e-02 7.30602890e-02 7.48248724e-03
      3.62006798e-02 7.70904720e-02 2.54845787e-02 -1.09777518e-01
      -4.79105674e-02 -3.05547435e-02 -5.27986139e-03 1.50918663e-01
      1.64822206e-01 1.63875982e-01 1.49678618e-01 5.48912622e-02
      4.62410487e-02 -5.15013449e-02 -9.88456681e-02 -2.29202241e-01
      -1.87593903e-02 1.56091556e-01 7.76277930e-02 -1.17652118e-01
      6.55343160e-02 5.28935902e-02 -1.05576485e-01 -4.32535857e-01
      3.44686896e-01 -6.82242811e-02 -9.78160203e-02 -4.25993241e-02
      -1.41777426e-01 -4.07713205e-02 -6.52847067e-02 -1.31700128e-01
      -3.02776881e-02 -1.24840245e-01 -2.61050537e-02 -2.09463373e-01
      -3.03057525e-02 -1.36492416e-01 -1.09394364e-01 -3.85174863e-02
      -1.47279963e-01 1.38780877e-01 -1.60725161e-01 -1.21665850e-01
      -3.59617323e-02 -7.39348158e-02 -1.67922415e-02 -2.67408174e-02
      6.60324246e-02 -1.41481176e-01 8.35035890e-02 -1.99648160e-02
      2.33900115e-01 2.18501221e-02 -1.04783863e-01 5.46601899e-02
      2.10955903e-01 -1.07552558e-01 -7.13442191e-02 -1.05812758e-01
      -2.60360539e-02 -9.15654153e-02 -1.07204519e-01 -8.79143178e-02
      -8.00071135e-02 7.54113644e-02 8.64530429e-02 -1.60273872e-02
      -7.99523890e-02 -6.15177900e-02 -1.20499516e-02 -8.43048543e-02
      -6.66641593e-02 -4.50768657e-02 -5.23200072e-02 -3.56791448e-03
      1.54659569e-01 1.08688476e-03 -1.30318701e-01 2.35580355e-01
      7.02515692e-02 6.42254725e-02 9.68163982e-02 1.93257123e-01
      1.52322100e-02 -8.75869170e-02 1.19836293e-01 -1.07390180e-01
      1.79277480e-01 7.14356825e-02 -9.62178130e-03 7.36353695e-02
      9.56038311e-02 1.86292287e-02 1.40312180e-01 -1.34237241e-02
      2.00564548e-01 3.56523544e-02 -2.60801874e-02 -1.60113499e-02
      1.15705393e-02 -1.44761261e-02 -7.37441480e-02 1.34671032e-01
      4.44188640e-02 -2.90033780e-02 -1.19799552e-02 1.37418970e-01
      1.60783716e-02 8.12896118e-02 -2.89759524e-02 -1.83090661e-02
      -2.07286403e-02 3.49230617e-02 1.93908826e-01 3.83017845e-02
      1.99494362e-02 3.88096459e-02 1.15843304e-02 1.35981500e-01
      1.73490401e-02 -1.16842827e-02 2.15868820e-02 -9.69400927e-02
      -1.08466908e-01 1.79742165e-02 8.59300569e-02 1.17412768e-01
      7.40252659e-02 3.76356989e-02 -5.16961180e-02 3.94185493e-03
      -1.70042843e-01 1.03361733e-01 7.18644112e-02 5.49372993e-02
      1.13315001e-01 -3.03350855e-02 -5.08053526e-02 1.03279166e-01
      -1.68646686e-02 1.27043605e-01 1.16721094e-01 1.37464151e-01
      2.07257480e-03 -2.29259655e-02 2.47391071e-02 8.55467170e-02
      -5.84960133e-02 9.62968990e-02 5.96244819e-02 6.45482391e-02
      2.90467925e-02 1.28675595e-01 7.08859488e-02 9.23043862e-02
      8.22563097e-03 -9.10365209e-02 -4.55412343e-02 1.38334438e-01
      4.73541729e-02 -3.39681632e-03 5.12806103e-02 1.21560484e-01
      6.29270151e-02 1.82098709e-02 7.72924721e-02 7.61579201e-02
      2.12534100e-01 6.82300702e-02 -2.58616563e-02 5.82495481e-02
      7.63682500e-02 2.56128181e-02 1.26721086e-02 -6.63636178e-02
      -8.33273977e-02 -2.70749684e-02 8.49940851e-02 -3.54720689e-02
      5.75487390e-02 8.94603506e-02 5.43516949e-02 -5.85144050e-02
      2.36032028e-02 -1.45609900e-02 -6.28212988e-02 -3.14850137e-02
      1.06692664e-01 1.31076008e-01 9.75828394e-02 1.31022766e-01
      1.37214558e-02 -3.07543408e-02 -2.46496126e-02 1.19301096e-01
      -9.52005684e-02 -2.16639459e-01 5.14172614e-02 5.51625267e-02
      1.25623032e-01 8.33970215e-03 -1.63710248e-02 1.20130861e-02
      -2.39084894e-03 -1.77684408e-02 -5.60464747e-02 1.76413301e-02
      1.40599802e-01 9.93291512e-02 5.62695675e-02 1.32233083e-01
      3.91911045e-02 -1.07340619e-01 2.47055404e-02 1.12672381e-01
      9.89641249e-02 -8.76236707e-03 1.39969558e-01 8.48318040e-02
      3.90084162e-02 5.07876985e-02 -1.39772398e-02 -5.23350947e-02
      2.91622267e-03 -2.98740678e-02 2.26629321e-02 -1.44850798e-02
      -7.31823891e-02 -6.63190335e-03 5.19153513e-02 -8.12071934e-02
      2.54556574e-02 4.05564308e-02 -4.71465439e-02 1.49757847e-01
      1.43541574e-01 1.80844627e-02 6.63767830e-02 -5.61769009e-02
      -5.87642565e-02 9.36431717e-03 -9.05070528e-02 5.41571006e-02
      -2.57730408e-05 6.55209795e-02 -5.00648730e-02 1.04821548e-01
      3.69358473e-02 -4.58971374e-02 1.97937295e-01 1.22221798e-01
      -1.02107875e-01 -4.11836430e-02 6.54038787e-02 3.54625285e-02
      7.48527348e-02 1.76844701e-01 1.83165923e-01 2.10023820e-02
      3.04416977e-02 -6.17624670e-02 -8.78824154e-04 3.81251648e-02
      -7.27246841e-03 8.48842114e-02 2.78377393e-03 4.17867163e-03
      -3.58141027e-02 1.74369756e-03 1.27018198e-01 1.07293822e-01
      1.17056951e-01 7.20045716e-02 5.87180629e-02 3.93187292e-02
      1.10478222e-01 -8.21989998e-02 -1.27382964e-01 -1.38215095e-01
      -2.13202044e-01 -9.94094536e-02 -2.29331683e-02 1.08269695e-02
      -4.19448502e-02 1.64652131e-02 -1.20880030e-01 -1.92691326e-01
      3.76740051e-03 -1.90232366e-01 2.54802871e-02 -6.89601805e-03
      -1.17803132e-02 4.87657525e-02 3.08272000e-02 -4.38501760e-02
      1.34687650e-03 5.04206009e-02 9.29904655e-02 2.18281858e-02
      -8.74336287e-02 1.39309641e-03 4.20084335e-02 8.84999111e-02
      8.30653533e-02 5.21520860e-02 1.21400073e-01 3.47068496e-02
      -2.35242117e-02 8.48195106e-02 -1.58124522e-03 -9.65863019e-02
      -7.61779472e-02 -1.52560547e-01 -9.24262851e-02 2.93462183e-02
      -8.88656080e-02 1.50022596e-01 1.28244638e-01 -2.28187907e-02
      -1.95260242e-01 1.26609311e-01 -3.84668587e-03 -9.89842229e-03
      -7.95411170e-02 -1.28728405e-01 -1.62220560e-02 -6.36477545e-02
      9.56336185e-02 1.39633566e-02 7.01256916e-02 -1.03569746e-01
      5.38699627e-02 -1.41491413e-01 -1.63479611e-01 -1.21111408e-01
      6.42477050e-02 -6.66873455e-02 2.45549697e-02 -7.86980838e-02
      2.40708143e-01 7.99866673e-03 7.04067796e-02 -6.99128732e-02
      1.55884683e-01 1.50120914e-01 -2.66536530e-02 -2.30435774e-01
      -3.15080173e-02 3.08895200e-01 5.95556274e-02 -1.82895169e-01
      -1.90192331e-02 1.13166586e-01 -1.06951416e-01 -3.05751134e-02
      -3.38774081e-03 -8.48589689e-02 4.59689945e-02 -1.05833821e-01
      -3.21071222e-02 -3.06111462e-02 1.06618166e-01 1.46088392e-01
      1.05850071e-01 4.00344394e-02 2.56820936e-02 -3.46252583e-02
      -6.31978437e-02 -7.18508102e-03 -3.89133953e-02 -1.07793443e-01
      -5.05863279e-02 1.54604852e-01 1.57517508e-01 -1.17377780e-01
      1.61507279e-01 -1.74685672e-03 -8.90921950e-02 4.19371910e-02
      1.18005298e-01 -1.07012324e-01 -3.02516252e-01 -8.58374909e-02
      4.83044460e-02 1.56666398e-01 -1.02603860e-01 -1.34578660e-01
      -4.26355377e-02 9.74958614e-02 7.95785859e-02 -7.25840032e-02
      6.01115152e-02 7.37545267e-02 -1.31289557e-01 -1.76991671e-01
      4.22312273e-03 1.27638325e-01 7.05660805e-02 -4.87514846e-02
      1.37722231e-02 -2.91555170e-02 -1.44268259e-01 -9.57742855e-02
      3.66864093e-02 -6.42619580e-02 1.60068974e-01 2.56577045e-01
      -3.27226147e-02 -4.12138969e-01 7.74267167e-02 -2.14763165e-01
      -1.09245524e-01 1.08476095e-01 -1.48541242e-01 -9.49618071e-02
      1.72662705e-01 2.90448785e-01 1.44237652e-02 1.29323527e-01
      -5.72293252e-02 -1.14485741e-01 4.66569178e-02 2.92962138e-03
      4.83578481e-02 -3.60871032e-02 -2.15787236e-02 4.98061590e-02
      1.97553769e-01 8.78212526e-02 1.41770631e-01 9.86788645e-02
      1.97957642e-02 1.03044935e-01 -7.64894951e-03 -5.29707484e-02
      1.15109183e-01 1.26786098e-01 -2.69588511e-02 2.36347347e-01
      7.77043551e-02 1.20839728e-02 1.95582807e-02 8.47468302e-02
      1.43676043e-01 2.70405523e-02 6.84387311e-02 3.20793688e-02
      -3.78707498e-02 -7.98017066e-03 2.42450107e-02 2.02402752e-02
      1.26872048e-01 4.21018563e-02 -5.40748052e-02 9.79578588e-03
      1.11112155e-01 8.05997849e-02 -1.01463748e-02 -2.74843443e-02
      1.51654080e-01 8.08060691e-02 -8.88782647e-03 4.02663201e-02
      -1.22244701e-01 2.02453971e-01 -5.10230288e-02 -5.29836118e-02
      2.51605343e-02 2.00126678e-01 1.39255837e-01 1.46910191e-01
      4.77339700e-02 1.31980762e-01 -1.00690439e-01 6.58454653e-03
      -1.01112291e-01 9.62570682e-03 3.07131652e-02 1.46856040e-01
      1.92209817e-02 9.05934870e-02 -3.61954756e-02 -3.04512996e-02
      -7.71459863e-02 1.00083373e-01 1.34373512e-02 1.01825304e-01
      5.02960496e-02 4.09982279e-02 1.55014368e-02 3.80922146e-02
      3.01464379e-01 1.10210173e-01 3.12142838e-02 2.00276494e-01
      2.76580036e-01 7.72436112e-02 -7.65451044e-02 -1.32256478e-01
      1.92847863e-01 7.64230862e-02 3.38014029e-02 5.46738878e-02
      4.13060561e-02 1.83933794e-01 3.21712680e-02 -6.80156574e-02
      -1.70741454e-01 9.23352018e-02 1.82533562e-02 2.00089924e-02
      4.81935963e-02 1.12376980e-01 -7.71663524e-03 1.03090525e-01
      9.05975103e-02 -5.09340316e-03 2.41021980e-02 -4.56107147e-02
      -1.15662534e-02 3.80403958e-02 1.19813234e-01 1.33210570e-01
      8.63554999e-02 -5.97267672e-02 -3.61233316e-02 1.66931003e-01
      -5.54068349e-02 -3.73060629e-02 -7.26593845e-03 -1.06231630e-01
      5.24988286e-02 1.29253656e-01 9.98070687e-02 1.84806049e-01
      3.83330286e-02 -8.80866051e-02 1.04600713e-01 -9.35414433e-02
      1.11843541e-01 6.53166175e-02 8.01478028e-02 -1.10596873e-01
      -1.01943482e-02 -1.30026877e-01 1.09201735e-02 2.60533512e-01
      1.20004654e-01 -8.61195251e-02 -3.45150046e-02 5.43324351e-02
      7.48194829e-02 -6.48534298e-02 3.62272203e-01 5.17072044e-02
      -6.62110969e-02 3.32520418e-02 -7.17730224e-02 -7.37631321e-02
      1.12901196e-01 1.38704762e-01 1.99494570e-01 8.76547545e-02
      -1.03901664e-03 3.45737934e-02 7.60093853e-02 2.86961347e-02
      1.03541069e-01 2.17283778e-02 -6.82795942e-02 -2.99336344e-01
      -3.06203924e-02 4.16282527e-02 5.26196472e-02 3.00408274e-01
      3.66441384e-02 -9.55903679e-02 9.65423286e-02 3.39526534e-02
      -6.49568290e-02 2.48446856e-02 -5.51228337e-02 1.72629673e-02
      8.83428529e-02 -2.03385167e-02 -5.14499247e-02 4.63507697e-02
      1.49811283e-01 -1.54170424e-01 -3.08261439e-02 -1.10632088e-02
      -1.37405649e-01 -4.92788367e-02 8.85085687e-02 1.16055124e-01
      8.49670172e-02 7.91769009e-04 2.19252426e-02 3.77063155e-02
      2.97939498e-02 -5.61491633e-03 1.07846987e-02 2.34020278e-02
      -4.85362783e-02 -3.49313505e-02 8.33493173e-02 7.93527290e-02
      -1.90494806e-01 -4.34326530e-02 -3.47660333e-01 -1.88749105e-01
      3.27751413e-02 -4.95783091e-02 7.77885765e-02 1.37511373e-01
      9.28032398e-02 6.50445558e-03 -3.20080779e-02 -7.13278353e-02
      8.54585245e-02 5.44966534e-02 -4.34598699e-03 9.38628092e-02
      -4.55315858e-02 4.35070321e-02 2.88423318e-02 -3.22428867e-02
      -2.07957327e-01 7.96749666e-02 -7.13111088e-02 -9.02732760e-02
      -1.19966835e-01 8.21561813e-02 3.02233584e-02 5.16959205e-02
      1.69616789e-01 -2.83930507e-02 -7.70112053e-02 8.69761631e-02
      -5.22901043e-02 1.14180714e-01 1.74796477e-01 9.80685502e-02
      8.72398689e-02 -5.74711487e-02 1.22981496e-01 1.45528957e-01
      1.14746153e-01 1.56353824e-02 1.22444127e-02 3.09989741e-03
      -1.75011292e-01 7.19022229e-02 -4.88178395e-02 1.69758238e-02
      5.08059040e-02 -1.09693132e-01 -1.46302074e-01 9.18728560e-02
      5.17927706e-02 -1.28908128e-01 -3.20785008e-02 1.26136085e-02
      -9.90141258e-02 4.59816717e-02 3.14604454e-02 -1.83364570e-01
      6.06169328e-02 6.18611500e-02 -1.28555208e-01 -3.54722589e-02</_></support_vectors>
  <decision_functions>
    <_>
      <sv_count>1</sv_count>
      <rho>1.4250531270241237e-01</rho>
      <alpha>
        1.</alpha></_></decision_functions></opencv_ml_svm>
</opencv_storage>
