<?xml version="1.0"?>
<opencv_storage>
<opencv_ml_svm>
  <format>3</format>
  <svmType>C_SVC</svmType>
  <kernel>
    <type>LINEAR</type></kernel>
  <C>5.0000000000000000e-01</C>
  <term_criteria><epsilon>2.2204460492503131e-16</epsilon>
    <iterations>1000</iterations></term_criteria>
  <var_count>2268</var_count>
  <class_count>10</class_count>
  <class_labels type_id="opencv-matrix">
    <rows>10</rows>
    <cols>1</cols>
    <dt>i</dt>
    <data>
      0 1 2 3 4 5 6 7 8 9</data></class_labels>
  <sv_total>45</sv_total>
  <support_vectors>
    <_>
      1.53733209e-01 7.64034316e-02 -1.29441828e-01 -7.20014125e-02
      1.52201327e-02 8.28136429e-02 3.49746868e-02 5.43685146e-02
      3.40120755e-02 1.70098081e-01 -6.09201752e-02 -8.53388682e-02
      4.96017449e-02 -1.06415721e-02 9.28350389e-02 3.40565592e-02
      -2.94437278e-02 3.79170254e-02 5.87413274e-02 -4.02962863e-02
      -1.17237428e-02 5.92053030e-03 3.26297618e-02 3.70263727e-03
      -2.77716126e-02 -7.35145807e-02 6.79445104e-04 -6.74001276e-02
      1.07374281e-01 -9.96337533e-02 -1.59828767e-01 -8.20024982e-02
      -6.30187765e-02 -1.17861621e-01 -2.76143011e-02 -1.09295836e-02
      1.17721379e-01 1.50437489e-01 -8.65868479e-02 5.70164155e-03
      -8.58192891e-02 -1.26741389e-02 -5.24941683e-02 -1.05598107e-01
      -5.76890148e-02 2.77894940e-02 -8.09160993e-03 -1.07958876e-01
      -4.11579832e-02 2.98996514e-04 6.08680621e-02 8.40927958e-02
      7.15190768e-02 6.25839084e-03 -1.00888442e-02 5.26176319e-02
      -1.10675842e-01 -1.40874282e-01 -2.74886973e-02 -4.00568508e-02
      -7.97560066e-02 -5.70381917e-02 -5.65378033e-02 9.79188010e-02
      -2.29336061e-02 -7.90914595e-02 -6.20950051e-02 -7.29757175e-02
      -6.32780567e-02 -7.88024813e-02 -1.10476986e-01 7.37119317e-02
      -2.70252209e-03 -6.83166087e-02 -6.72298223e-02 -1.10918889e-02
      -2.25173216e-02 6.11476637e-02 5.11721224e-02 5.95666729e-02
      2.19484102e-02 6.63576871e-02 -3.10246344e-03 6.91162096e-03
      1.60701759e-02 1.02339610e-02 -1.63409635e-02 -3.05894185e-02
      -7.95732290e-02 1.57678500e-02 1.80634588e-01 3.41081433e-02
      6.37711063e-02 2.15243157e-02 -6.51020631e-02 -7.58691505e-02
      -1.58533528e-01 -6.59874687e-03 8.75025615e-02 2.20102996e-01
      1.00507520e-01 4.85244207e-02 3.56749743e-02 2.87011806e-02
      -2.57263589e-03 -2.21547633e-02 6.40842617e-02 1.79052502e-01
      1.59984280e-03 -5.05000027e-03 -1.18185110e-01 -5.78437671e-02
      -6.56773075e-02 1.90914534e-02 2.02902742e-02 2.90632695e-02
      -6.80379719e-02 1.13043310e-02 1.15936417e-02 -5.50147444e-02
      -3.80964465e-02 -6.71890229e-02 -1.98096000e-02 3.37596275e-02
      1.27943918e-01 7.86194429e-02 5.91120236e-02 8.32699314e-02
      7.28092790e-02 3.17466855e-02 4.16234285e-02 2.30846684e-02
      4.34590178e-03 1.06219128e-01 5.89177534e-02 -4.97234687e-02
      -1.00457251e-01 -1.53066978e-01 -7.39673823e-02 -7.23800212e-02
      -2.83758016e-03 -5.64804487e-03 4.98120636e-02 -8.16367865e-02
      -1.61507390e-02 -3.04905530e-02 -6.16040714e-02 -1.04613649e-02
      -3.54377404e-02 6.81349263e-02 1.74403861e-01 1.16901614e-01
      9.07771662e-03 -4.99308705e-02 1.20048951e-02 -1.60601772e-02
      2.24369057e-02 1.19722709e-02 1.12692676e-02 4.59572598e-02
      1.15943521e-01 -9.88245085e-02 1.03217289e-01 2.46756747e-02
      2.60339230e-02 3.70261818e-02 -1.55559722e-02 -3.58396620e-02
      -6.59843162e-02 -4.10852581e-02 8.28339383e-02 2.74958581e-01
      9.02094617e-02 -6.08830480e-03 -5.60777355e-03 -6.34143874e-02
      -4.91480678e-02 -1.27914473e-01 -3.81707065e-02 2.01963738e-01
      2.23264933e-01 1.85789168e-02 7.94887450e-03 -1.63554996e-02
      -2.03125607e-02 1.00940512e-03 -2.21760795e-02 -1.53972104e-01
      1.43466622e-01 3.62612307e-03 2.26255711e-02 9.30964667e-03
      -2.08728760e-02 -3.17188166e-02 -3.10664275e-03 -1.64603256e-02
      5.42871282e-02 -3.02070342e-02 8.09191093e-02 -9.32009667e-02
      -2.89993384e-03 -4.03843727e-03 9.41116735e-03 -4.71062101e-02
      -4.92822118e-02 -1.05873216e-02 2.13548131e-02 1.68926828e-02
      -4.71648835e-02 1.82524547e-02 -1.25651835e-02 -2.34071799e-02
      -2.60909181e-02 -5.07732481e-02 -4.51051109e-02 7.50850439e-02
      -3.07790879e-02 4.24005138e-03 -2.26726811e-02 3.69820074e-04
      -3.35733071e-02 -1.15949530e-04 4.39943857e-02 2.21502874e-02
      -6.83861747e-02 -4.66289483e-02 -1.17732644e-01 -9.29739978e-03
      5.07919714e-02 2.02173963e-02 -1.66514497e-02 8.38776082e-02
      2.50110272e-02 -1.47142615e-02 -1.12914488e-01 -9.61973295e-02
      1.63112057e-03 5.66532882e-03 -1.58205628e-02 -1.51090547e-02
      -1.26258750e-02 4.82332818e-02 -5.61588071e-02 1.72095403e-01
      2.46925559e-02 -4.13419567e-02 -1.54419048e-02 -3.38701382e-02
      -1.41869895e-02 -3.78455669e-02 -1.17437460e-01 1.10258639e-01
      2.47005373e-01 9.81009677e-02 7.31956661e-02 1.53593514e-02
      -4.28195186e-02 5.62181622e-02 -7.50266481e-03 6.94524348e-02
      2.10082680e-01 3.64267938e-02 3.52069066e-04 2.28654295e-02
      -1.54932281e-02 -4.15451527e-02 -4.43449151e-03 -1.42780300e-02
      1.03190586e-01 6.33351207e-02 1.86338536e-02 -6.63606897e-02
      -1.74093731e-02 8.18580296e-03 -2.10924279e-02 -2.43523661e-02
      -2.30389126e-02 4.78937700e-02 1.08467765e-01 -9.82828811e-02
      -1.22174554e-01 2.06733942e-02 5.90515845e-02 -5.57675771e-02
      1.50803821e-02 -9.24244989e-03 6.34829327e-02 -9.63310376e-02
      -6.05039299e-02 -1.70303851e-01 -8.33949819e-02 -4.22904789e-02
      -4.96945791e-02 9.27090459e-03 1.07302740e-01 8.61600190e-02
      -6.65540397e-02 -8.68292600e-02 -2.49589756e-02 8.00902490e-03
      3.76417041e-02 1.68156740e-03 -9.41670965e-03 1.93631276e-02
      6.40018284e-02 -2.86103692e-02 -4.66422997e-02 -1.40923858e-01
      8.05621408e-03 6.16647974e-02 -5.30002965e-03 2.49279905e-02
      3.15358974e-02 5.42390645e-02 1.53250759e-02 -1.22240737e-01
      -1.91975996e-01 -1.10088550e-01 -8.15103874e-02 -9.49382037e-02
      -8.57545342e-03 4.14942168e-02 1.02724180e-01 -3.46060656e-02
      -1.13554172e-01 4.91717421e-02 -8.87650922e-02 -1.01052664e-01
      -4.78951149e-02 -2.57301368e-02 -5.63050769e-02 -5.77414408e-03
      -4.30290550e-02 -1.11707374e-02 6.87440112e-02 -6.58422187e-02
      -3.13232131e-02 -5.07748798e-02 1.72860734e-02 -2.45402642e-02
      -5.33568971e-02 -9.69160646e-02 -1.28599172e-02 -4.52894792e-02
      -1.17682174e-01 -3.47252153e-02 -1.36828516e-02 5.56345470e-02
      8.15950707e-02 8.77686366e-02 -1.28597412e-02 5.47092520e-02
      3.74269336e-02 -1.80279613e-01 -1.41432941e-01 3.90776582e-02
      2.25795172e-02 1.89246554e-02 -1.33745475e-02 -3.14486399e-02
      1.01850457e-01 -5.45632020e-02 -3.60094756e-02 -9.79839861e-02
      -2.60755345e-02 -3.86376679e-02 -7.51656073e-04 -1.19108081e-01
      1.07755870e-01 2.60310667e-03 -8.04025382e-02 -8.82468745e-02
      -3.36476089e-03 -1.64226897e-03 7.72391856e-02 6.26931116e-02
      6.81989565e-02 4.69904914e-02 8.50260481e-02 8.05503055e-02
      -1.21549934e-01 -1.27422571e-01 1.69636533e-02 1.05197188e-02
      1.21121109e-01 5.61665781e-02 -1.04622997e-01 1.50956124e-01
      2.20541090e-01 2.34013312e-02 -1.22991264e-01 -5.41384146e-02
      -2.08092388e-03 3.55235301e-02 3.58816311e-02 1.92052737e-01
      2.25004759e-02 -2.78754998e-02 -6.40647858e-03 -2.97724269e-03
      1.09416405e-02 2.02486776e-02 -1.75722018e-02 -3.20227109e-02
      1.53313458e-01 -1.62576009e-02 -5.57807498e-02 -1.39345378e-01
      -6.35507554e-02 -7.35728517e-02 1.19616585e-02 -1.00955451e-02
      1.47377839e-03 -5.97027503e-02 5.75830825e-02 -4.64076959e-02
      -1.30202994e-01 -8.94936696e-02 -1.14526778e-01 -1.81643032e-02
      1.95321068e-02 1.30511910e-01 1.21382542e-01 3.51044051e-02
      2.53991596e-02 8.71833041e-03 1.87344588e-02 1.93624459e-02
      9.55105480e-03 8.38538818e-03 1.24301337e-01 6.10161386e-02
      -1.11167710e-02 -1.27306923e-01 -1.90416664e-01 -1.06136858e-01
      -9.48304608e-02 8.89730919e-03 -1.23197315e-02 2.31232401e-02
      -2.17023622e-02 -2.54491400e-02 -1.60021678e-01 -1.48106202e-01
      -3.68929021e-02 -6.64536431e-02 2.74126623e-02 7.37649798e-02
      3.00305467e-02 3.44003439e-02 -1.66814364e-02 -1.46140633e-02
      -1.22590857e-02 3.57522815e-02 -8.20171263e-04 2.46837586e-02
      4.98234816e-02 1.20664202e-01 -5.88033115e-03 1.20728895e-01
      -2.98563913e-02 -1.09328277e-01 -8.63157138e-02 -5.95283136e-02
      -3.43881212e-02 -5.31760231e-02 -4.65770327e-02 2.54267808e-02
      6.41486782e-04 -1.88423861e-02 -5.30761704e-02 7.55729328e-04
      4.02200781e-03 3.00310273e-02 -4.71382588e-02 -3.95767540e-02
      4.31968942e-02 6.76760226e-02 -4.83045876e-02 -5.22062071e-02
      2.81456206e-03 -2.24536681e-03 6.00856869e-03 -7.35051744e-03
      -4.78574783e-02 -1.83135942e-02 5.95904607e-03 -1.51325129e-02
      -1.96066629e-02 -3.19143720e-02 -3.75164337e-02 -1.63563285e-02
      -2.35659219e-02 4.15451676e-02 2.64344923e-02 1.65924486e-02
      -6.31428510e-02 1.11110453e-02 1.25410007e-02 -2.80151200e-02
      -7.36317113e-02 -1.15378879e-01 5.71362441e-03 4.39982116e-02
      3.64769176e-02 -1.23254340e-02 1.75900403e-02 -1.55445130e-03
      -2.55772080e-02 -3.26701514e-02 -8.37947652e-02 -1.91657860e-02
      4.95091639e-02 1.03178192e-02 -4.60475637e-03 -3.90384495e-02
      -1.45368103e-03 -6.12116605e-02 6.88792905e-03 6.40420290e-03
      3.88949923e-02 -6.56560957e-02 1.40550593e-02 -1.01764724e-01
      -3.03454250e-02 3.62924486e-02 -3.85897569e-02 -2.12516007e-03
      2.00537462e-02 1.52203478e-02 -1.59225743e-02 9.98408999e-03
      -4.83538471e-02 -6.33907691e-03 7.63906119e-03 -2.65676435e-02
      -3.10616065e-02 -3.27287689e-02 5.14597408e-02 5.55029996e-02
      6.14041649e-02 -2.15337686e-02 -4.79092412e-02 -1.30538084e-03
      -2.00871099e-02 -9.85424407e-03 -6.66869357e-02 -1.02119781e-01
      -2.32991409e-02 -5.74174039e-02 -9.55264643e-02 -9.84329730e-02
      9.67599731e-03 -7.87207112e-02 4.34393948e-03 -3.19012739e-02
      -1.00906968e-01 -1.01405449e-01 -5.25143836e-03 5.12990030e-03
      -2.06357259e-02 -9.37075261e-03 -2.85348929e-02 -1.49598047e-02
      -1.22855511e-02 7.61912838e-02 7.06376787e-03 1.04016848e-02
      -6.05598614e-02 -3.06584816e-02 3.53828748e-03 -1.20096384e-02
      -2.59283464e-02 -3.92045490e-02 8.97437427e-03 7.30924234e-02
      -1.41892046e-01 -1.15409702e-01 -7.69527629e-04 9.91631765e-03
      -5.40611930e-02 -6.42205104e-02 -1.07557431e-01 -2.05545053e-02
      -3.04032136e-02 -5.92105314e-02 -1.41821623e-01 -7.04746619e-02
      -4.41628508e-02 -3.80544029e-02 1.43027911e-03 5.55142015e-02
      -2.28440985e-02 -6.22336343e-02 1.13110906e-02 -3.92229371e-02
      -2.31918246e-02 2.94151288e-02 -5.01385238e-03 -1.18760988e-02
      -2.12883018e-02 1.01976797e-01 4.55897376e-02 -2.41288245e-02
      -8.45322087e-02 -2.98142992e-02 4.59962934e-02 -3.26050930e-02
      -5.05807661e-02 -2.83271205e-02 2.94240173e-02 2.33940650e-02
      -7.30569139e-02 -1.79079309e-01 -6.21002503e-02 -3.19456756e-02
      -8.82024616e-02 -1.04525005e-02 2.68531963e-02 8.61127898e-02
      4.95774597e-02 1.13180421e-01 3.21772099e-02 -1.27935670e-02
      1.51859550e-03 -2.28777714e-02 -8.40401836e-03 9.86453705e-03
      4.01201509e-02 5.24447262e-02 3.48388776e-02 -6.56091934e-03
      3.33473496e-02 -4.54804581e-03 -4.77964431e-02 -3.37013565e-02
      8.44982937e-02 9.34956819e-02 -2.29799915e-02 -5.49062863e-02
      -8.06022435e-03 4.87169856e-03 -3.59550118e-02 -8.32287520e-02
      -4.46022227e-02 7.56666809e-02 1.64472520e-01 6.34257197e-02
      3.08687352e-02 -9.12136585e-03 -2.10572764e-01 -1.41644329e-01
      2.09966581e-02 2.06438992e-02 5.11460938e-03 -1.00254286e-02
      -3.45602371e-02 3.00150905e-02 -1.00716911e-01 -1.87256977e-01
      -1.71046227e-01 -4.60754596e-02 2.49154642e-02 5.51562645e-02
      -6.75345585e-02 5.90813644e-02 -5.69489785e-02 -1.01968303e-01
      -8.06296319e-02 -2.34398944e-03 -1.22586107e-02 3.82425152e-02
      3.53343338e-02 3.01901400e-02 -4.40162756e-02 6.67360723e-02
      8.73362422e-02 -1.67746454e-01 -1.31666988e-01 2.92207990e-02
      2.74046864e-02 9.69685763e-02 9.54337344e-02 -1.75427616e-01
      8.02044496e-02 1.80410877e-01 -4.12104353e-02 -1.21413693e-01
      -4.58139926e-02 -8.43909662e-03 1.99806057e-02 -3.75725180e-02
      -5.16107380e-02 -7.39024803e-02 -2.87796985e-02 -4.92753088e-02
      -1.64607260e-02 -7.07542012e-03 1.04871038e-02 -8.28886963e-03
      7.61972880e-03 5.13984542e-03 8.43193978e-02 1.59597829e-01
      -2.05480270e-02 3.21854977e-03 8.77603516e-03 5.94392093e-03
      2.56269742e-02 4.70641926e-02 -1.29027709e-01 1.14107125e-01
      2.83895433e-01 8.38799998e-02 7.97406510e-02 6.16765358e-02
      7.29242619e-03 -3.84364910e-02 -4.69582230e-02 2.64138896e-02
      3.22954841e-02 -1.81299318e-02 -6.54107779e-02 -4.25451621e-03
      -1.60438493e-02 -1.04234144e-02 1.43831866e-02 2.38428246e-02
      -1.77955162e-02 -3.76738235e-02 -9.29547027e-02 -1.12424150e-01
      -5.15664443e-02 -4.39354703e-02 1.38651626e-02 2.13073771e-02
      3.51804271e-02 -3.31382379e-02 1.13914749e-02 -5.26027158e-02
      -4.31576595e-02 2.45628543e-02 -1.94304883e-02 7.60435686e-02
      1.08631276e-01 6.00284524e-02 7.94782192e-02 -2.86587514e-02
      1.99709535e-02 -7.08059315e-03 4.17592525e-02 1.93326864e-02
      4.07427400e-02 5.68415783e-02 9.51115116e-02 -4.52384502e-02
      -1.88406638e-03 2.27160733e-02 -6.18220903e-02 -4.44664694e-02
      -3.83826494e-02 -9.75769758e-03 -8.06861743e-03 -4.74616652e-03
      -5.88634238e-02 -9.79323760e-02 -9.84431617e-03 -2.75643705e-03
      1.37741249e-02 1.48817152e-02 7.67408758e-02 2.64266971e-02
      -4.76652235e-02 -7.71035114e-03 4.69181873e-02 3.78627377e-03
      -3.25182490e-02 -3.00429878e-03 1.36507108e-04 2.46558636e-02
      -8.04532610e-04 -5.80838546e-02 -4.08825539e-02 5.92309386e-02
      3.23373042e-02 -9.50347185e-02 -3.36671025e-02 -5.39190881e-02
      -4.94103320e-02 -2.50950847e-02 2.69060638e-02 1.85320247e-02
      2.95862202e-02 -7.39812478e-02 -9.88442749e-02 -2.77803876e-02
      -8.98615420e-02 -2.36964916e-04 7.06284568e-02 5.10645099e-02
      5.85419647e-02 4.34962176e-02 7.67764915e-03 -1.15766283e-02
      6.54747011e-03 -2.53403489e-03 2.84011085e-02 2.45824717e-02
      1.61837973e-02 8.06339532e-02 -1.11398716e-02 4.97441180e-02
      1.26086213e-02 1.72426533e-02 -3.04270610e-02 2.02524029e-02
      1.75598115e-02 6.10299222e-02 -5.58165759e-02 9.17016622e-03
      -4.44716439e-02 1.16238219e-03 1.13165669e-01 -9.20175458e-04
      3.29554863e-02 5.70431836e-02 9.26017389e-02 3.25390063e-02
      1.03741065e-02 -1.99716538e-02 -4.94366046e-03 1.70278549e-02
      -1.15782302e-02 -1.20129287e-02 5.87946316e-03 9.54374298e-02
      4.35531363e-02 3.08565777e-02 -8.33511353e-03 -3.53735276e-02
      3.48457671e-03 -2.18972228e-02 1.06774075e-02 -2.77542677e-02
      -9.61827785e-02 -5.06574325e-02 -8.07610601e-02 -8.95258710e-02
      -7.58975819e-02 3.16316225e-02 -4.31123711e-02 3.24820504e-02
      7.80612929e-04 -8.65851343e-02 -8.13198090e-02 -2.58438066e-02
      3.26630473e-02 -2.96870582e-02 -3.66756786e-03 -2.42617168e-02
      -1.58000235e-02 4.03141044e-03 7.93815106e-02 -3.90641913e-02
      -1.94241162e-02 -1.71166640e-02 -3.29780616e-02 -6.55892305e-03
      -4.31972556e-02 -2.93827383e-03 -6.44420180e-03 -7.66916424e-02
      1.18393814e-02 -3.06396671e-02 8.80260840e-02 -5.66934869e-02
      -4.10974352e-03 -5.04942238e-02 -9.86802951e-03 -7.78372660e-02
      5.96927702e-02 -6.23558499e-02 1.54760852e-02 9.54331309e-02
      6.16329303e-03 -1.67484935e-02 -3.08711287e-02 -5.20947855e-03
      -2.08854601e-02 7.46268779e-02 2.54565645e-02 5.86755108e-03
      3.91897652e-03 1.38487294e-02 3.32614966e-02 4.86167567e-03
      -4.24593501e-03 6.42691785e-03 7.29028657e-02 -1.56430528e-03
      5.13418540e-02 -5.07404022e-02 4.63719713e-03 3.89338173e-02
      -4.66758311e-02 -8.15073922e-02 -2.71827281e-02 1.23058237e-01
      6.73863590e-02 -8.29928219e-02 -1.06038660e-01 -3.78138199e-02
      -1.42546920e-02 -7.28214160e-02 -3.24717909e-02 2.41658762e-02
      1.16612062e-01 5.46565689e-02 1.58043820e-02 2.17260253e-02
      -7.87474588e-03 6.41632651e-04 -1.45508694e-02 -7.11314520e-03
      2.59528263e-03 6.06234968e-02 -5.88494027e-03 -5.33350860e-04
      2.55584512e-02 3.53620909e-02 -1.66365933e-02 -4.86119539e-02
      -5.78282215e-02 3.05960365e-02 7.44976923e-02 -2.68871244e-02
      -4.57292758e-02 1.92601960e-02 1.92319974e-02 -2.23573130e-02
      -8.06856528e-02 -4.54844758e-02 1.06306680e-01 2.07965866e-01
      6.91655278e-02 -1.07758932e-01 4.86677885e-02 -1.40837161e-02
      -9.11605358e-03 -1.04335463e-02 -8.58073961e-03 -6.89507499e-02
      1.03885241e-01 -3.13693769e-02 -1.54536277e-01 -2.37448188e-03
      7.92083517e-03 -1.90833155e-02 -3.60138193e-02 -5.51879369e-02
      -1.90197304e-02 9.74654257e-02 -4.08193283e-02 -1.26787171e-01
      -3.52943912e-02 1.49443243e-02 7.82545749e-03 -5.79174282e-03
      -1.94308236e-02 1.81660373e-02 1.00890294e-01 -1.43087775e-01
      -2.48718029e-03 5.53639792e-02 -1.24489367e-01 -1.14827700e-01
      7.95662310e-03 1.47026796e-02 5.13099320e-02 2.76735146e-02
      -1.97218493e-01 8.43192041e-02 1.58976361e-01 -5.70883565e-02
      -8.43311101e-02 -3.68873216e-02 -2.83552869e-03 2.70496644e-02
      -3.47308479e-02 -9.72945467e-02 -6.37922883e-02 -2.80958563e-02
      -6.00501150e-02 -9.63000208e-03 -4.66974080e-03 -1.32085860e-03
      -4.73872293e-03 2.73589808e-02 -9.52150375e-02 1.15726933e-01
      2.02081412e-01 -5.75601682e-03 -1.82839332e-03 3.50227067e-03
      2.06443183e-02 4.33331318e-02 3.12431101e-02 -2.08951637e-01
      5.78349084e-02 2.58845866e-01 9.06345993e-02 7.47502670e-02
      5.94867095e-02 1.55839082e-02 -3.92790511e-02 -1.06457897e-01
      3.11113824e-03 2.73201596e-02 -3.56590822e-02 -9.24873278e-02
      -5.89381624e-03 -1.86694600e-02 -6.56384323e-03 1.31902695e-02
      -4.91225859e-03 -6.20858148e-02 1.22885332e-02 2.23962337e-01
      7.13254586e-02 2.35884879e-02 2.85315029e-02 6.15760647e-02
      9.74318460e-02 -5.17713390e-02 -2.91987956e-01 -3.72983562e-03
      1.05242722e-01 2.12773914e-03 9.43145975e-02 8.30660611e-02
      7.14534074e-02 8.79918560e-02 -5.21231629e-02 -2.45409030e-02
      -4.24616132e-03 -1.71150230e-02 -6.73529282e-02 -7.19102158e-04
      1.72992609e-02 2.50005871e-02 -3.65269259e-02 1.53149255e-02
      4.65319864e-02 -1.77884102e-02 3.18215154e-02 3.67571809e-03
      -1.45818749e-02 -1.88375041e-02 -3.43393348e-03 -2.71491543e-03
      2.35884031e-03 -1.43949196e-01 -3.01659554e-02 -5.90913333e-02
      -9.05664824e-03 6.12388039e-03 3.01795136e-02 5.33773042e-02
      -9.06019378e-03 -5.89726120e-02 1.64035633e-02 -4.34139818e-02
      -1.23538217e-02 -2.40790248e-02 -1.02093257e-02 -7.12712761e-03
      4.29434120e-04 -1.62950233e-02 -8.00351351e-02 -1.09727994e-01
      5.43252192e-02 3.42382118e-02 -6.18871711e-02 -5.56976208e-03
      -2.95664910e-02 -2.74131596e-02 -2.27628164e-02 5.60830757e-02
      -1.39496662e-02 -1.36771407e-02 -9.57608074e-02 -1.10769190e-01
      -3.19456160e-02 -9.62636620e-02 9.01860371e-03 4.51566838e-02
      -7.54939988e-02 2.53577586e-02 5.88199906e-02 -1.24493486e-03
      -1.83379054e-02 -1.22447126e-02 -2.22984646e-02 1.69206765e-02
      1.61482058e-02 1.70801412e-02 1.07459217e-01 -4.31912802e-02
      -2.06560120e-02 -7.61689693e-02 -1.06278923e-03 3.70202423e-03
      4.58543975e-04 -2.74030417e-02 5.45262210e-02 5.59847429e-02
      -3.14419344e-03 -3.48998941e-02 -7.34932870e-02 -6.78113243e-03
      -3.48368138e-02 3.07453889e-02 -5.45034334e-02 1.91369578e-02
      4.02840823e-02 5.56026809e-02 -4.56813648e-02 6.26205513e-03
      -1.75007861e-02 -2.19174437e-02 1.56113999e-02 6.79137360e-04
      2.12821066e-02 3.36303562e-02 -1.75100472e-02 -2.69296896e-02
      -9.31442715e-03 4.87933960e-03 1.22916754e-02 2.15835087e-02
      -2.72187870e-03 -5.90598397e-02 -6.92246631e-02 -3.11496779e-02
      -1.51083693e-02 -3.94852981e-02 4.04338725e-02 3.37809138e-02
      5.07239215e-02 3.29432562e-02 -9.27484781e-02 -4.13626358e-02
      -1.07332587e-01 -2.86769960e-03 -1.79040395e-02 2.40192516e-03
      1.21541526e-02 1.65620223e-02 2.83947811e-02 8.18575323e-02
      -5.73934242e-02 2.69196462e-02 -1.86708290e-02 -1.90934278e-02
      -7.80885387e-03 -1.08695570e-02 2.24635247e-02 2.72887908e-02
      -1.38727352e-02 5.39390258e-02 1.15042301e-02 6.35786280e-02
      -2.77010892e-02 1.28712477e-02 -6.13060256e-04 3.21357697e-02
      -8.30516312e-03 3.93886603e-02 1.86223555e-02 4.23241369e-02
      1.05598032e-01 2.58206334e-02 -1.03947902e-02 -6.41670870e-03
      2.09822375e-02 9.28885024e-03 9.39880535e-02 2.81416588e-02
      4.61714901e-02 -1.86102260e-02 -2.40437849e-03 -8.05830956e-03
      -1.83423068e-02 8.68016668e-03 -2.69284844e-03 -2.19144784e-02
      8.73279572e-02 1.72642805e-02 -9.61892381e-02 -1.48871681e-02
      -5.87628521e-02 -3.22032124e-02 2.36075055e-02 -1.32128904e-02
      3.63609679e-02 8.12407117e-03 -6.92434981e-02 -9.22337472e-02
      1.75694749e-02 -1.59287881e-02 2.18817824e-03 9.92491562e-03
      -1.99287813e-02 3.77020217e-03 -4.43317704e-02 -5.48815578e-02
      4.86086421e-02 -8.91047250e-03 1.55990501e-03 -9.50348214e-04
      4.62283613e-03 2.25827415e-02 5.64826764e-02 -6.88141510e-02
      5.15142828e-02 3.51899453e-02 1.33678447e-02 -4.08940390e-03
      4.27811319e-04 -4.54150140e-02 6.73798518e-03 7.28848130e-02
      -9.87888034e-03 -8.25944319e-02 2.50811912e-02 1.39827784e-02
      -6.18394138e-03 -2.15614978e-02 -1.23200873e-02 1.20950669e-01
      1.75864637e-01 3.18232290e-02 -1.57202296e-02 7.59307444e-02
      2.37545551e-04 -8.44468921e-03 -6.38798764e-03 1.31092807e-02
      -2.30663456e-02 4.44102027e-02 1.26131009e-02 -1.35828391e-01
      2.45572850e-02 2.62285043e-02 -1.84894353e-02 -4.22197059e-02
      -5.21885231e-02 -4.61572669e-02 9.13522020e-02 8.59545358e-03
      -5.14259599e-02 6.76758662e-02 5.37405349e-02 3.64826210e-02
      -2.24287137e-02 -1.20835062e-02 3.03879324e-02 1.43018484e-01
      -1.43894061e-01 -7.85341263e-02 -6.10386617e-02 1.05556697e-02
      -1.63856298e-02 -8.12603254e-03 9.62213334e-03 -2.13035941e-02
      -6.62205219e-02 -4.62076217e-02 -2.30872154e-01 -5.52912802e-02
      -5.79724722e-02 -3.45674790e-02 -3.95482257e-02 -4.58866395e-02
      -4.11336944e-02 3.77691127e-02 -2.73976326e-02 -4.53491285e-02
      7.16270804e-02 7.45910853e-02 3.33789177e-02 -3.17393467e-02
      -1.52144618e-02 2.47840229e-02 7.19228908e-02 -1.34107366e-01
      5.95095493e-02 1.74346000e-01 -1.40268197e-02 -2.48192716e-02
      -3.42391990e-02 -4.74493718e-03 2.70667449e-02 5.99882565e-02
      -1.59384936e-01 4.48180139e-02 1.58848181e-01 3.86770256e-02
      3.78863886e-02 -2.20449697e-02 -1.94568671e-02 -4.33510467e-02
      -8.13055858e-02 2.89358315e-03 -1.21268280e-01 -6.32565692e-02
      -9.01246369e-02 -2.42943019e-02 -3.34633850e-02 -3.05767003e-02
      -2.39371657e-02 -6.85046464e-02 -9.43601802e-02 2.62697525e-02
      2.44381100e-01 8.74650180e-02 1.97651726e-03 -1.47110829e-02
      4.90930676e-02 1.01647630e-01 4.86585014e-02 -2.57367134e-01
      3.82255320e-03 4.15498465e-02 -3.39901149e-02 5.02652153e-02
      -2.14231685e-02 4.63588946e-02 9.43830833e-02 -7.39427842e-03
      -9.77263302e-02 -3.16389725e-02 -4.17526700e-02 -8.17597285e-02
      -1.21982954e-02 1.76776554e-02 2.08926983e-02 -3.71178947e-02
      -2.16960423e-02 -1.55041730e-02 -1.73429087e-01 2.28154194e-02
      3.11556607e-02 1.96084026e-02 -3.27310674e-02 1.12456949e-02
      2.93332040e-02 1.51273444e-01 -7.47645646e-02 6.01685680e-02
      2.29894556e-03 -1.89900875e-01 1.33536989e-02 -1.22531958e-01
      -1.78344119e-02 2.76784436e-03 9.97110531e-02 3.26920711e-02
      9.06422883e-02 4.04826179e-03 -3.86526808e-02 9.35512874e-03
      -1.32157113e-02 -1.09372418e-02 5.01799174e-02 6.21713661e-02
      2.88108811e-02 4.74175764e-03 2.77176294e-02 -1.64043047e-02
      5.42706298e-03 -2.57917913e-04 -3.40826274e-03 6.26795739e-03
      3.61265093e-02 -4.83316369e-02 4.88210842e-02 -7.53515214e-02
      -8.05134550e-02 -1.99294067e-03 -5.36634251e-02 1.45759741e-02
      3.45422216e-02 -8.24077129e-02 -2.72956807e-02 -6.94253370e-02
      -1.34682031e-02 -2.06553694e-02 -7.79595273e-03 -2.97372788e-03
      2.06563435e-02 2.05858964e-02 8.33124574e-03 4.60849479e-02
      -3.67190428e-02 -6.24241168e-03 -7.49366730e-02 -1.58929208e-03
      1.92255620e-02 1.52976066e-02 4.79737110e-03 7.66678005e-02
      3.35971713e-02 -5.28932363e-02 -9.82983634e-02 -4.52645309e-02
      -5.48196537e-03 7.96800014e-03 3.37299891e-02 -3.50653194e-02
      1.99218709e-02 -1.79128945e-02 6.87595829e-02 5.96930878e-03
      5.84615581e-02 -1.06619224e-02 6.73664035e-04 1.92726068e-02
      -1.51720271e-02 -4.32811342e-02 1.75099131e-02 4.90245745e-02
      -3.27217914e-02 -9.65996534e-02 -2.28745444e-03 -6.22480474e-02
      -1.61999986e-02 4.67087738e-02 6.17189100e-04 -6.33302554e-02
      2.12372076e-02 -3.64317670e-02 -1.55354720e-02 3.87233985e-03
      -1.57725159e-02 7.43819494e-03 9.23120975e-02 8.39205757e-02
      6.55020624e-02 -2.77571045e-02 -8.05597287e-03 6.42234683e-02
      2.25672033e-04 1.03411125e-02 3.14003304e-02 -8.78482405e-03
      3.32117477e-03 4.30768094e-04 -3.64285707e-02 -2.02982463e-02
      -1.86267048e-02 -5.16680721e-03 -9.66946222e-03 1.48305101e-02
      1.63814668e-02 -1.73741300e-02 -6.21589040e-03 -5.85366748e-02
      2.83839107e-02 -1.96344778e-02 -1.79894753e-02 -2.23560110e-02
      2.73278411e-02 -3.40709388e-02 -1.32396119e-03 1.83905326e-02
      -3.73966359e-02 1.00301139e-01 1.58655215e-02 -1.21263536e-02
      -1.39576280e-02 -5.07039484e-03 -6.23880187e-03 6.42727986e-02
      -6.73727021e-02 1.04720600e-01 -1.78231578e-02 -5.93543565e-03
      -7.50107924e-03 -1.34296697e-02 1.78955626e-02 -1.89513601e-02
      -1.11972922e-02 1.11326508e-01 -5.96956611e-02 -5.66881858e-02
      -1.07649667e-02 -5.04781082e-02 -2.98265535e-02 1.19839106e-02
      -5.20076491e-02 -4.59561311e-02 -5.34467213e-02 -5.45078516e-02
      -6.80049434e-02 1.84755754e-02 -1.49117308e-02 -4.61867684e-03
      8.31594132e-03 -2.11059004e-02 1.34904953e-02 2.97418348e-02
      -7.32531995e-02 -6.99619278e-02 -2.42264476e-03 -2.57345708e-03
      -4.53507353e-04 1.66779663e-02 -1.62006880e-03 3.43385115e-02
      2.18513259e-03 -6.45087659e-02 -2.56761592e-02 5.66751957e-02
      -2.26367228e-02 -8.06887262e-03 1.89020322e-03 -9.04526487e-02
      -5.87344095e-02 -3.19900177e-02 3.58325131e-02 4.13334668e-02
      2.37017730e-03 -5.46104275e-03 -1.13153178e-02 -2.14511398e-02
      -1.56329162e-02 -9.85593069e-03 6.40442222e-02 -4.86760475e-02
      7.84517974e-02 1.36342617e-02 -5.81163215e-03 -3.04616569e-03
      7.31968414e-03 -8.83640721e-03 3.61094400e-02 -7.21249357e-02
      -5.12337349e-02 2.27752589e-02 3.07422783e-02 -2.96795531e-03
      -6.49745064e-03 -1.79720372e-02 6.46395795e-03 6.45058751e-02
      2.34164633e-02 -1.18995391e-01 3.81600782e-02 3.80118005e-02
      3.85924466e-02 1.61683466e-02 7.10008945e-03 2.55090762e-02
      1.16044708e-01 -1.94393888e-01 -1.64740719e-02 -5.21242917e-02
      3.02414522e-02 -7.32908677e-03 1.50621438e-03 1.65578108e-02
      -1.15658315e-02 -1.34099675e-02 1.86897200e-02 -1.24487117e-01
      -1.11447116e-02 -5.70918173e-02 -2.67455000e-02 -4.76466957e-03
      -7.55860051e-03 -3.12812589e-02 4.40152697e-02 -3.00185699e-02
      2.05485579e-02 1.14350073e-01 9.07501280e-02 2.89533455e-02
      -2.23895330e-02 -9.21727903e-03 4.51529473e-02 4.96408269e-02
      -1.19539440e-01 4.42992710e-03 2.32318118e-02 2.26779953e-02
      3.55921732e-03 -2.09838757e-03 -6.16695452e-03 -1.17030488e-02
      -4.00612317e-02 -3.50237620e-04 5.23977503e-02 1.12528428e-01
      -8.04081094e-03 -1.80299878e-02 -2.10032277e-02 -3.95252220e-02
      -2.10746117e-02 4.05837856e-02 -4.87651564e-02 -1.17754810e-01
      1.55472815e-01 9.72806364e-02 1.78981330e-02 -2.63839494e-02
      -6.05003908e-03 -1.52391894e-02 -3.11558452e-02 -3.31790984e-01
      -1.28603987e-02 1.55581087e-01 8.69596303e-02 1.10776005e-02
      -3.40288803e-02 2.20530741e-02 5.11552840e-02 2.70183440e-02
      -2.71569461e-01 -1.36074834e-02 3.24255181e-03 -9.44597498e-02
      2.02599578e-02 -5.05431332e-02 1.83915012e-02 7.39267245e-02
      2.42164228e-02 -8.41312632e-02 -6.16386048e-02 -5.33523560e-02
      -9.45378095e-02 -3.15683074e-02 1.70536654e-03 1.10533964e-02
      -3.17386463e-02 -2.81296708e-02 -8.98269638e-02 -1.26525879e-01
      9.82396603e-02 7.85070434e-02 1.91502366e-02 -6.27046674e-02
      -1.15504367e-02 -5.14205359e-03 1.91120163e-01 -1.84191763e-02
      -2.20776591e-02 -1.36056589e-03 -2.36655578e-01 -3.88629772e-02
      -1.78360730e-01 -6.47260547e-02 -5.67647032e-02 1.14043802e-01
      3.87948938e-02 8.22589770e-02 -3.43716778e-02 -6.27188906e-02
      -3.84710263e-03 -3.92743759e-02 -2.77068336e-02 5.50167300e-02
      7.74307698e-02 1.37726545e-01 -1.68493733e-01 7.36996755e-02
      1.18069530e-01 3.16290669e-02 -4.94802408e-02 -3.53320576e-02
      -5.63215115e-04 2.03267410e-01 2.57815365e-02 -1.42686733e-03
      7.93702528e-03 2.11930107e-02 3.34850838e-03 -7.80696943e-02
      -1.01585373e-01 -1.17654569e-01 7.32652545e-02 1.79435924e-01
      -8.34090337e-02 -2.89523043e-02 4.58156131e-03 2.07805987e-02
      -2.05226485e-02 -1.42834112e-02 8.78820755e-03 8.07481855e-02
      6.28625825e-02 -3.87654193e-02 -1.31819192e-02 -6.13860227e-02
      -1.42639410e-02 2.96612293e-03 6.78028865e-03 3.58597119e-03
      5.39145991e-02 -5.88340394e-04 -8.89684930e-02 -1.00663811e-01
      -7.78823271e-02 -4.22167927e-02 -9.11984965e-03 1.18597094e-02
      -1.08421527e-01 -2.15108749e-02 2.13340856e-02 6.23514727e-02
      -1.60187986e-02 2.83236790e-04 -1.88745745e-02 -5.76978829e-03
      7.30542606e-03 -5.86111136e-02 -1.01818472e-01 -3.73424147e-04
      1.49778768e-01 3.57881188e-02 -6.00301623e-02 -4.28871438e-03
      -3.22779380e-02 -1.73870493e-02 4.65746708e-02 5.30489683e-02
      5.57556190e-02 6.51166663e-02 -2.54315343e-02 -3.53431627e-02
      -3.44627127e-02 -4.34281565e-02 -1.83136519e-02 4.57730144e-02
      1.68270972e-02 7.27399439e-02 4.73524025e-03 -1.64170342e-03
      3.90123725e-02 -2.59558689e-02 -3.92143894e-03 1.02296928e-02
      -5.15828356e-02 -5.48768006e-02 -5.92844235e-03 -8.98229331e-02
      -3.11200861e-02 -1.09681534e-02 1.18958764e-02 -7.37333531e-03
      -5.75184124e-03 5.41042723e-03 1.04517967e-01 1.08158559e-01
      -2.09183302e-02 5.96815208e-03 1.59222838e-02 1.10416571e-02
      -3.64636481e-02 2.23584026e-02 6.90614730e-02 1.74441710e-01
      -4.00699563e-02 -1.19013935e-01 3.50012593e-02 1.88040994e-02
      -1.61978472e-02 -6.54757768e-03 2.67876517e-02 3.51689234e-02
      9.14673805e-02 -5.81446812e-02 9.53236818e-02 -1.80916842e-02
      -2.37009916e-02 -1.86920017e-02 1.32478098e-03 1.28676649e-02
      -2.65987534e-02 -2.72875354e-02 5.35535291e-02 -7.48947412e-02
      -4.04955521e-02 4.12328877e-02 -2.35205926e-02 -1.88481645e-03
      1.54535323e-02 -5.34953177e-02 -4.00649756e-02 -7.29044527e-02
      -7.35376999e-02 -5.29266521e-02 2.07642168e-02 -6.61495188e-03
      -8.75296351e-03 -6.96138304e-04 -2.06153337e-02 -4.93579321e-02
      4.84771654e-03 -1.30615709e-03 -4.32807319e-02 -6.87758019e-03
      -2.19785012e-02 1.02165313e-02 2.17391308e-02 6.79152133e-03
      7.91081488e-02 1.17795855e-01 3.51779461e-02 6.73859343e-02
      8.19296017e-02 -2.74088420e-03 1.39138540e-02 2.62275748e-02
      -9.57822949e-02 -1.35711776e-02 -2.26048585e-02 1.23150975e-01
      7.41977468e-02 1.39945243e-02 -5.86903305e-04 -1.26644121e-02
      -2.29534265e-02 -5.27277403e-02 -3.74323986e-02 1.31164536e-01
      -1.01842590e-01 3.91788557e-02 -9.72474366e-03 -1.61404703e-02
      1.88017869e-03 2.70215925e-02 5.80436736e-02 1.18127510e-01
      -2.22523753e-02 6.56381063e-03 -2.11119596e-02 3.58172357e-02
      -1.92961227e-02 7.43459724e-03 2.10560188e-02 -1.92722548e-02
      2.91299783e-02 9.79991443e-03 -5.78490086e-02 9.05348826e-03
      8.30346718e-03 1.91972253e-03 -1.06782326e-02 -2.37494893e-02
      -8.72645453e-02 -9.28592905e-02 -4.98053841e-02 -2.98403054e-02
      -5.54418005e-02 3.58552337e-02 -1.15549032e-04 -3.18180257e-03
      3.05191358e-03 -1.47916814e-02 -3.91212404e-02 -3.51129286e-02
      -1.36690885e-01 -1.39243677e-02 -3.90758887e-02 -2.75910515e-02
      -1.31201604e-02 -6.57859538e-03 -2.10616309e-02 6.18578121e-02
      -2.19255276e-02 2.01115236e-02 1.21416934e-01 4.90687639e-02
      -2.22025532e-03 -2.74597071e-02 -2.39083339e-02 1.84261817e-02
      1.15141878e-02 -1.00865692e-01 1.04765132e-01 7.38454089e-02
      5.25724515e-02 3.07054189e-03 -7.09825847e-03 -1.12785231e-02
      -4.32244092e-02 -4.74893972e-02 8.06885809e-02 9.12780240e-02
      5.29954955e-02 -3.16037498e-02 -6.29098043e-02 -2.45612320e-02
      -5.24935201e-02 -3.83913587e-03 8.22018981e-02 -7.60293156e-02
      4.54459414e-02 2.52306014e-01 1.27700776e-01 -6.28412655e-03
      -5.47834188e-02 -1.73892751e-02 -1.06639499e-02 -1.50680598e-02
      -2.27108136e-01 -8.67023095e-02 8.13922845e-03 1.35114510e-02
      3.35766422e-03 -5.95759880e-03 -1.54268630e-02 -6.15845583e-02
      -5.57670295e-02 -3.01025864e-02 1.63239375e-01 5.12604155e-02
      3.39656100e-02 -7.10565131e-03 -4.06203195e-02 -8.63984451e-02
      -1.02282308e-01 -5.61282709e-02 -4.52126656e-03 8.08798596e-02
      1.44283384e-01 1.30283013e-01 -8.40806775e-03 -3.68736871e-02
      -5.25858328e-02 -1.44878272e-02 -1.48861811e-01 -1.06865354e-01
      -1.18412592e-01 4.13204543e-02 3.86584923e-02 2.67278720e-02
      -2.05097683e-02 -6.42337324e-03 -5.15674846e-03 1.50870472e-01
      -3.51998657e-02 -8.09201747e-02 6.11899942e-02 -1.00912161e-01
      9.37118009e-03 -7.71551728e-02 -3.30565274e-02 -5.93109578e-02
      -8.29050411e-03 -3.05005955e-03 2.65164319e-02 3.32344580e-03
      -2.63470262e-02 1.39801297e-02 -2.15286687e-02 -1.09707043e-02
      5.99686429e-02 -4.70151268e-02 1.38943025e-03 -1.33762687e-01
      6.75161406e-02 1.32510170e-01 5.69364391e-02 -2.73128636e-02
      -2.92579420e-02 3.77246626e-02 3.36920917e-01 6.06767721e-02
      -6.81515411e-02 5.97630367e-02 5.88369630e-02 3.13723795e-02
      -3.54954563e-02 -9.00434032e-02 -1.45163193e-01 1.25217080e-01
      -1.14543326e-02 -1.14615135e-01 -1.41208165e-03 1.87592953e-02
      3.16977799e-02 5.54830593e-04 -4.88482788e-03 1.23606035e-02
      5.56646399e-02 -2.88909562e-02 -1.89059600e-01 -5.73699027e-02
      3.44959795e-02 6.45947009e-02 7.33956844e-02 1.23162419e-02
      1.01599284e-01 2.30529159e-01 -3.84949259e-02 -3.84290516e-02
      1.44392753e-03 2.08342224e-02 1.09965779e-01 1.65029556e-01
      -5.07662222e-02 -1.09860159e-01 9.59544778e-02 5.55001982e-02
      -7.34330341e-02 5.70389964e-02 5.80726489e-02 4.89687212e-02
      4.18510959e-02 9.41075943e-03 -5.80640733e-02 3.97709534e-02
      6.31273389e-02 1.02395937e-01 2.16930769e-02 -6.09982386e-02
      -1.42892133e-02 -3.19811627e-02 -1.46592343e-02 3.20726186e-02
      1.20290546e-02 -4.40764762e-02 -8.05769414e-02 -6.45946190e-02
      -2.91897357e-02 -1.83029994e-02 -4.70567644e-02 1.43754045e-02
      5.49636334e-02 7.07386993e-03 3.36720347e-02 -1.27172962e-01
      -4.29327786e-02 3.96813452e-03 -1.22054061e-02 4.09808429e-03
      2.32413262e-02 -7.65873641e-02 -4.61867116e-02 -6.26241267e-02
      -8.97560269e-02 -3.24849598e-02 -1.21684847e-02 -4.82317014e-03
      -2.20520655e-03 -1.03016943e-02 -4.74878065e-02 1.04009718e-01
      1.05350770e-01 -1.06994428e-01 -8.18516128e-03 1.07968776e-02
      5.16062975e-02 -2.84631681e-02 4.57339324e-02 7.91502073e-02
      1.83808193e-01 -5.03436849e-02 -1.25987142e-01 4.52918857e-02
      4.12443466e-03 -5.23538841e-03 -1.09875137e-02 3.52988355e-02
      4.73117530e-02 1.00266188e-01 -4.89462018e-02 2.59894785e-03
      5.97529113e-02 2.61138864e-02 2.97121014e-02 3.90856192e-02
      -3.54934037e-02 -1.11482777e-01 1.03213511e-01 8.56798738e-02
      4.61718254e-02 3.69813293e-02 2.86909789e-02 4.58547994e-02
      -5.88279124e-03 1.76517908e-02 -6.29287362e-02 1.06115013e-01
      1.92962423e-01 -7.15772510e-02 5.54732345e-02 -9.51442029e-03
      -7.05354102e-03 -4.07047980e-02 -5.21640526e-03 8.67259130e-03
      8.95330608e-02 7.96557665e-02 -5.06026559e-02 -2.37440579e-02
      6.19582273e-03 -7.32247531e-03 2.68968940e-02 3.31965797e-02
      1.79957598e-02 6.15008250e-02 6.03154860e-02 -4.48550023e-02
      9.64167938e-02 1.06850401e-01 3.63273025e-02 6.94765374e-02
      6.33023083e-02 -8.12217593e-02 -3.75736542e-02 -3.70278656e-02
      6.84588701e-02 7.71491304e-02 2.48427708e-02 1.30784018e-02
      1.24359941e-02 -5.90434717e-03 -4.84618843e-02 -8.62335414e-02
      1.59493648e-02 -9.19208080e-02 3.11048888e-02 1.58496611e-02
      -4.20026568e-04 2.47217100e-02 5.15016504e-02 7.17453733e-02
      1.37151033e-01 8.08344781e-03 6.89110253e-03 4.39851843e-02
      9.12413970e-02 2.74328031e-02 3.80725525e-02 6.87147304e-02
      3.77748385e-02 1.77104063e-02 -1.65101308e-02 -6.73093274e-02
      2.71442886e-02 2.66286097e-02 1.66922472e-02 1.31069124e-03
      -2.75233388e-02 -1.27517641e-01 -1.26659378e-01 -1.19738370e-01
      -4.47857864e-02 6.75235614e-02 5.74929163e-06 -5.04116900e-03
      3.14997174e-02 1.08244242e-02 3.27306502e-02 1.35836497e-01
      1.53802410e-01 4.88218591e-02 9.36487913e-02 1.51690254e-02
      -1.42944027e-02 -1.10864397e-02 2.38585821e-03 9.64572430e-02
      2.22561240e-01 1.56862795e-01 1.60652399e-02 9.06685814e-02
      1.74736083e-02 1.32057130e-06 -1.30844989e-03 -1.60691850e-02
      -2.31142826e-02 5.41027263e-02 5.04255705e-02 1.20244481e-01
      6.39905408e-02 3.50767635e-02 6.66537974e-03 6.90525770e-03
      -1.73088303e-03 -2.99404413e-02 -4.07161415e-02 5.72264977e-02
      1.17434144e-01 6.98371753e-02 2.06536073e-02 -3.58722694e-02
      -1.47985539e-03 -2.39535719e-02 -1.58240572e-02 7.37720802e-02
      -1.81946252e-02 5.17350845e-02 1.79158598e-01 7.97292367e-02
      -1.07734660e-02 -3.23707648e-02 -6.72792690e-03 -2.34611593e-02
      -7.67541230e-02 -1.69812217e-01 -4.96991612e-02 1.27927568e-02
      3.70324310e-03 1.04592741e-02 1.41466232e-02 -8.01978819e-03
      -5.54691590e-02 -2.24081296e-02 -2.92044375e-02 2.31230542e-01
      1.11359254e-01 6.68436214e-02 -1.07240640e-02 -3.59669663e-02
      -8.51836577e-02 -9.90665480e-02 -6.11209944e-02 -1.71835069e-02
      1.61033601e-01 2.71623403e-01 1.92697644e-01 -3.21972631e-02
      -3.79092507e-02 -6.39518052e-02 -3.99818905e-02 -2.13351652e-01
      -6.79730475e-02 -9.78177786e-02 2.47086585e-02 -5.78269223e-03
      -3.26871243e-03 -1.71931498e-02 -6.87889103e-03 7.20880320e-03
      8.43273327e-02 2.89624669e-02 2.71550685e-01 1.27890259e-01
      1.41501784e-01 6.29046001e-04 3.38709168e-02 -1.07057430e-02
      -1.36826321e-01 -1.73635170e-01 -1.07597262e-01 2.15022162e-01
      2.58240879e-01 2.08531931e-01 2.73350533e-02 2.30922233e-02
      -3.26562896e-02 -8.55118558e-02 -3.38198483e-01 -1.17600620e-01</_>
    <_>
      2.24945862e-02 6.38755038e-02 1.57961305e-02 1.00873946e-03
      2.59585306e-02 6.52188668e-03 2.81785871e-03 1.65791158e-02
      9.30361170e-03 -1.96900610e-02 1.70229711e-02 -2.61880886e-02
      -2.46752482e-02 4.19035442e-02 2.45894585e-03 -4.26440313e-03
      8.83418601e-03 -2.97740865e-02 3.08652092e-02 4.79656411e-03
      -1.50507214e-02 -4.71201837e-02 -5.19674562e-04 -8.46029259e-03
      -7.40329595e-03 8.41930509e-04 8.05367436e-03 -2.62996238e-02
      4.81158607e-02 -3.48778777e-02 -1.48410359e-02 -1.46218650e-02
      -1.24013247e-02 8.17832351e-03 1.60947032e-02 -1.57900527e-02
      -2.91027669e-02 3.32892090e-02 -4.66301665e-02 -3.46288756e-02
      -2.51127128e-02 -3.11452593e-03 -3.06788925e-03 8.26450437e-03
      -8.41621608e-02 7.29736388e-02 5.83270714e-02 -1.83204710e-02
      -6.86534643e-02 -1.27259148e-02 1.17145097e-02 1.48870479e-02
      3.55550721e-02 2.03869790e-02 -2.82856319e-02 -1.15360906e-02
      -4.37940396e-02 -3.82092670e-02 2.19358690e-03 -6.81096641e-03
      -5.40112564e-03 1.21721961e-02 -2.98592349e-04 -8.94299224e-02
      -7.37445652e-02 -3.73507030e-02 -4.02930453e-02 1.66155479e-03
      9.82860848e-03 -3.13720223e-03 -1.40729360e-02 -8.03529769e-02
      -3.93872149e-03 7.78968818e-03 1.08820498e-02 -2.56511755e-02
      -7.59768486e-03 1.63606703e-02 1.03102727e-02 -1.65366363e-02
      -5.61744906e-02 -4.98016924e-02 -2.14852430e-02 -5.25624231e-02
      -7.69877285e-02 -3.65216285e-02 -2.37154569e-02 -1.70959849e-02
      -1.60605554e-02 -4.80300784e-02 7.51366019e-02 2.66913772e-02
      -3.59034874e-02 -8.18472728e-02 -8.14543739e-02 -5.43388054e-02
      -8.22089612e-02 -1.23709485e-01 -3.16046663e-02 9.92470086e-02
      6.22893125e-02 2.52491385e-02 2.21015941e-02 2.83069815e-02
      -2.52907950e-04 -1.21092806e-02 -6.23968430e-02 4.77343351e-02
      -1.98704433e-02 -1.16957054e-02 -5.97552285e-02 -8.33256617e-02
      -3.03528551e-02 3.48101929e-03 -4.81596071e-04 6.48249499e-03
      -5.37329875e-02 4.71711345e-02 4.31251451e-02 -6.06300980e-02
      -9.07164440e-02 -3.63924429e-02 9.65454732e-04 3.36283655e-03
      8.12255684e-03 5.08351624e-02 4.87302318e-02 1.01179788e-02
      5.20630879e-03 8.81474186e-03 3.09490040e-02 7.44778337e-03
      -1.14899911e-02 -4.17545997e-02 4.27322313e-02 -2.38464009e-02
      -1.07176155e-02 -1.60819218e-02 -2.78376769e-02 -1.07002407e-02
      5.20323915e-03 -1.09119872e-02 -2.87350453e-02 -6.84366152e-02
      1.86691731e-02 -2.46110186e-02 -4.24453653e-02 -7.30991364e-02
      -4.21418324e-02 1.29402522e-02 2.64062174e-02 -3.83713059e-02
      -1.71604119e-02 4.86480482e-02 -3.67514677e-02 -3.11286636e-02
      9.87388194e-04 1.26310894e-02 -4.00278764e-03 2.12758780e-04
      2.54547726e-02 4.67812493e-02 7.47832060e-02 4.02802117e-02
      8.70424788e-03 -2.54363436e-02 -2.73300465e-02 -3.76648605e-02
      -3.64967473e-02 -1.32911846e-01 -9.39491857e-03 9.68500748e-02
      5.78251295e-02 1.68289654e-02 1.33493738e-02 -1.97575744e-02
      -2.39896383e-02 -4.76133935e-02 -9.33658332e-02 6.29205033e-02
      5.53131774e-02 -2.28735600e-02 -2.77027115e-02 -1.18145216e-02
      -1.02044526e-03 1.16097031e-03 -8.76635127e-03 -8.44450295e-03
      3.45862173e-02 4.91861887e-02 1.13313720e-02 -3.01142689e-02
      -5.98730594e-02 -2.17312351e-02 -2.50555314e-02 -3.42260450e-02
      -4.78677303e-02 3.70143428e-02 -2.89102574e-03 -6.59793243e-02
      -5.43788783e-02 -1.56596191e-02 -2.27786638e-02 -3.09108179e-02
      -4.02527563e-02 -5.10080419e-02 1.02710295e-02 -1.21560339e-02
      -6.24929443e-02 -4.51783054e-02 -1.85094979e-02 -2.09041499e-02
      -3.02084698e-03 -5.88291418e-03 -2.23229500e-03 -1.81789882e-02
      4.12706211e-02 -2.24768631e-02 -5.05965911e-02 -3.50874886e-02
      -2.30306610e-02 -1.83965806e-02 -1.81269515e-02 9.09683853e-03
      2.08095275e-02 3.36063206e-02 -5.91364540e-02 -1.12094156e-01
      -2.06962805e-02 -1.92978140e-02 -5.21658100e-02 -2.80315802e-02
      -7.58306636e-03 1.45837264e-02 4.43760790e-02 -7.47505948e-02
      -7.41312057e-02 -2.57416479e-02 -2.82275043e-02 -1.32522080e-02
      -5.67420502e-04 1.08520687e-02 -2.38481853e-02 3.82592455e-02
      8.34074337e-03 -1.02384407e-02 3.01630516e-03 5.39370207e-03
      1.15798153e-02 -3.72781721e-03 -1.72591638e-02 2.49889065e-02
      -1.55092496e-03 -9.60739143e-03 -2.11269166e-02 -1.24981105e-02
      -6.12515258e-03 1.01970201e-02 2.55757570e-03 5.40589727e-02
      4.64802422e-02 -8.49692337e-03 -4.44946028e-02 -1.79217178e-02
      -2.40348652e-02 -4.69632186e-02 -1.32341338e-02 5.73342070e-02
      1.34703636e-01 2.68452372e-02 1.78345945e-04 -3.90611291e-02
      -1.33903893e-02 9.73751955e-03 8.29733256e-03 8.30526557e-03
      8.73730890e-03 8.36330652e-03 9.14720912e-03 -5.64480722e-02
      -5.45886941e-02 -3.10524497e-02 -4.18636296e-03 -3.94059978e-02
      3.40975001e-02 2.57858541e-02 -3.44756730e-02 -2.89731193e-02
      -3.44244391e-02 -6.39425889e-02 -4.26246375e-02 -3.33062895e-02
      -1.78648904e-02 1.60799101e-02 8.59095454e-02 6.14250563e-02
      -3.56966667e-02 6.87122121e-02 -3.88411954e-02 -1.72745362e-02
      1.02475546e-02 5.06738375e-04 -4.35360614e-03 8.52496177e-03
      1.85907520e-02 3.68309394e-02 2.22963318e-02 -7.02389926e-02
      -1.02562338e-01 -7.48084933e-02 -8.79422650e-02 -2.02210564e-02
      -4.52148542e-03 1.28066866e-02 -5.32101979e-03 -5.85030280e-02
      -8.01001191e-02 -6.18773662e-02 -6.59188069e-03 3.92763363e-03
      1.10526308e-02 1.90017372e-02 4.21281494e-02 -4.14884686e-02
      -4.00901726e-03 5.43053709e-02 -2.26508845e-02 -1.10199982e-02
      -6.56358805e-03 -4.28371364e-03 9.86797828e-03 1.79287829e-02
      -3.34285614e-05 -2.72233896e-02 3.97666283e-02 -2.85484530e-02
      -1.66840348e-02 -3.74794309e-03 1.37162888e-02 1.48358429e-02
      2.51196269e-02 -7.91681111e-02 5.23556583e-02 4.63780202e-02
      -1.39193181e-02 -3.85592282e-02 -6.69572782e-03 1.25887785e-02
      1.87412165e-02 3.07101607e-02 9.54190269e-03 -1.69547405e-02
      -2.63322983e-03 -5.47718219e-02 -5.45430779e-02 4.05589910e-03
      2.24877032e-04 5.24061639e-03 2.06561033e-02 8.05788301e-03
      -7.47243911e-02 -7.43536502e-02 -3.23583335e-02 -4.41832170e-02
      9.08323564e-03 1.70481578e-02 4.30944929e-04 1.24650449e-03
      -8.32137242e-02 -2.13975981e-02 1.20614246e-02 1.90050788e-02
      -2.26370357e-02 -5.45893447e-04 2.42229141e-02 1.61302313e-02
      -9.01971105e-03 -6.46546334e-02 2.61397380e-02 6.46352693e-02
      -1.83846671e-02 -4.02853116e-02 -5.83251612e-03 -7.94881303e-03
      3.32182050e-02 2.98644099e-02 4.41670418e-02 5.04831709e-02
      9.32360440e-02 -5.84750529e-03 -4.33118902e-02 -3.57319117e-02
      -2.15426404e-02 -3.49739492e-02 2.06545927e-02 2.90645305e-02
      3.08466759e-02 1.75190028e-02 1.34532722e-02 -1.74687076e-02
      9.58889350e-03 9.28726047e-03 2.34922976e-03 1.86504032e-02
      2.27110516e-02 -2.49520829e-03 2.28787269e-02 -3.66455056e-02
      -5.12301214e-02 -1.45152071e-02 8.78474489e-03 6.79146545e-03
      1.05220620e-02 -4.17694375e-02 6.41308203e-02 7.42270201e-02
      -4.19205241e-02 -7.15386868e-02 -1.10864500e-02 1.55944536e-02
      2.85286922e-02 4.70900759e-02 6.98865280e-02 5.41675203e-02
      9.00489185e-03 -1.60239395e-02 -2.96954392e-03 2.18592361e-02
      8.34600627e-03 -3.44485347e-03 -4.49131709e-03 6.46396875e-02
      -7.03139901e-02 -2.68738642e-02 -2.36643981e-02 -3.51667330e-02
      -1.17893005e-02 1.29621197e-02 -8.78351450e-04 -2.26789266e-02
      -9.80086923e-02 1.55136036e-02 -2.40589753e-02 -5.36392070e-02
      -7.88971260e-02 -4.09343392e-02 1.64447986e-02 2.62798294e-02
      -3.60499583e-02 -1.92714203e-02 5.95286228e-02 -3.84930596e-02
      -3.59616466e-02 1.16686872e-03 2.24192105e-02 -5.05040213e-03
      5.56111569e-04 2.88701151e-02 5.70092872e-02 -1.09147551e-02
      1.25152282e-02 -1.18004698e-02 -1.57842766e-02 -1.76509544e-02
      -1.83463916e-02 -2.31038630e-02 -4.94579505e-03 -4.33773361e-02
      2.95290947e-02 -3.06494869e-02 -4.49140221e-02 -3.85802947e-02
      -2.68178079e-02 -1.06471067e-03 8.45232792e-03 3.55735235e-02
      7.40548521e-02 2.03401390e-02 -5.64929657e-02 -2.00790260e-02
      -4.12304699e-03 5.66413766e-03 -1.56502184e-02 -5.49251493e-03
      1.44226896e-02 2.04479266e-02 5.63573912e-02 2.08395440e-02
      -1.59494672e-02 -5.89574203e-02 -1.37250405e-02 -7.24575436e-03
      -1.36137744e-02 -1.49004050e-02 4.53718789e-02 2.16176584e-02
      -3.25531662e-02 -3.37942280e-02 -7.86051340e-03 1.70259699e-02
      -5.87680936e-03 -1.17150480e-02 2.74648378e-03 4.82994020e-02
      1.03909886e-02 -4.07186113e-02 -1.88116971e-02 -7.28400610e-03
      -3.65504622e-03 9.90998093e-03 7.47718755e-03 3.19785513e-02
      1.76838767e-02 3.70347761e-02 -1.92296840e-02 -3.26269120e-02
      -3.46231461e-02 -1.69365853e-02 -1.11714127e-02 -7.93992542e-03
      1.03488015e-02 3.81353241e-03 4.68298830e-02 -3.34154107e-02
      -8.21167827e-02 -2.33462155e-02 -2.18661665e-03 -4.58880477e-02
      -3.55760828e-02 -1.62245873e-02 3.16287726e-02 7.28058070e-02
      -7.09564313e-02 -6.13210090e-02 -3.39962505e-02 -2.05077920e-02
      -1.05946623e-02 7.65496120e-03 4.77658957e-02 1.40548712e-02
      2.07570288e-02 -2.41225120e-02 -4.81288042e-03 -5.93374157e-03
      -2.22495245e-03 -1.88466441e-02 -1.20764468e-02 9.19887051e-03
      1.84235107e-02 3.18835229e-02 -8.55705068e-02 -4.69729155e-02
      -1.89756081e-02 -2.03180145e-02 -5.80570102e-02 -6.18081503e-02
      -2.70641204e-02 -1.55116883e-04 -4.14575301e-02 -5.00954837e-02
      -5.79733439e-02 -3.21333297e-02 -2.51759086e-02 -1.41891167e-02
      6.40137307e-03 2.18862928e-02 7.46344961e-03 3.92784737e-03
      -3.50195765e-02 -7.21271150e-03 5.97661175e-03 8.57590046e-03
      4.75516776e-03 4.25070059e-03 1.00554191e-02 -8.50555860e-03
      -2.61059068e-02 -4.04361486e-02 -2.51981579e-02 -2.44733319e-03
      -7.10436329e-03 3.63522992e-02 4.15968150e-02 -2.76762452e-02
      -2.34589949e-02 -2.68869139e-02 -3.57368067e-02 -1.91193111e-02
      -1.18335625e-02 5.72138606e-03 3.39559019e-02 6.60089478e-02
      2.00676788e-02 -4.33404073e-02 7.95408115e-02 -2.81362478e-02
      -1.96902622e-02 7.64990365e-03 1.46158040e-04 -7.57152727e-03
      4.71354229e-03 2.90900003e-02 4.98933569e-02 3.68963182e-02
      -4.49094363e-02 -1.00406542e-01 -7.03422576e-02 -6.12883419e-02
      -4.60671224e-02 1.45107433e-02 4.20418084e-02 2.71150358e-02
      -1.90228578e-02 -8.16577151e-02 -1.98435728e-02 1.41296117e-02
      2.12957393e-02 3.45950052e-02 4.00605649e-02 7.28682503e-02
      2.50588078e-03 3.03412359e-02 -1.36830006e-02 -1.91823877e-02
      -7.79225165e-03 -1.37732765e-02 -1.29802302e-02 2.21183803e-03
      2.87741218e-02 4.40092012e-02 -4.34019603e-03 -6.61226809e-02
      -1.71341095e-02 -6.63801581e-02 -3.90795693e-02 -3.15963328e-02
      3.70514244e-02 2.76134051e-02 -3.68146040e-02 -5.51435649e-02
      -1.57014653e-02 2.86700986e-02 -4.47405677e-04 -1.18016973e-02
      -1.09386828e-03 2.76414528e-02 -6.71171397e-03 -7.34172240e-02
      -5.87841915e-03 3.58786969e-03 -3.33592817e-02 -4.17317972e-02
      -2.30719848e-03 -5.63820498e-03 -1.65669248e-02 1.66613888e-03
      1.43104594e-03 -6.49886206e-02 -7.15901330e-02 -3.44575644e-02
      -5.19075207e-02 -3.28021194e-03 8.08820408e-03 -1.69753898e-02
      -5.55693079e-03 -6.53840080e-02 -1.00535564e-02 -6.25939714e-03
      -2.41688825e-03 -1.92302149e-02 -4.22915490e-03 1.37627153e-02
      7.12266518e-03 -6.44982234e-03 -4.88771684e-02 2.46874392e-02
      8.41807872e-02 -3.04228021e-03 -3.75742167e-02 -1.55174984e-02
      -1.61194503e-02 -2.49500480e-03 2.86541060e-02 1.57944188e-02
      4.96320762e-02 1.16113320e-01 -7.74225360e-03 -5.52721359e-02
      -5.30652478e-02 -4.21817638e-02 -5.58828637e-02 -2.89209094e-02
      -2.24219281e-02 1.65265016e-02 2.84109712e-02 -2.37427396e-03
      -2.38904003e-02 -1.65822683e-03 4.94790869e-03 -9.72549024e-04
      1.03432443e-02 -1.87024719e-03 3.74521650e-02 5.54977506e-02
      2.69508418e-02 7.49585452e-03 5.46282344e-03 -8.32592137e-03
      -1.33764306e-02 4.18801084e-02 3.79056558e-02 4.67040576e-03
      3.29860114e-02 2.83569749e-02 3.36173326e-02 -2.81862426e-03
      -1.59516707e-02 -1.78545881e-02 1.01374686e-02 -4.07129899e-02
      -1.68048684e-02 2.61513535e-02 2.00832658e-03 5.92040643e-03
      -2.42035557e-03 5.05446270e-03 9.37194563e-03 2.00286182e-03
      -6.17974326e-02 -3.16748396e-02 -2.49799564e-02 -2.17737630e-02
      -2.96572074e-02 -1.24336844e-02 9.85580869e-03 -1.63534394e-04
      -1.20643964e-02 -8.16935897e-02 -1.70287527e-02 -2.62299590e-02
      -4.40027229e-02 -7.03722909e-02 -3.88108082e-02 1.17296679e-02
      2.87103783e-02 -2.34624390e-02 -3.98579687e-02 6.20550364e-02
      -1.22946454e-02 -1.74326077e-02 1.06888879e-02 1.29323881e-02
      -3.42568127e-03 -9.88708111e-04 2.45322790e-02 4.80832122e-02
      -1.32980663e-02 1.20948311e-02 -1.13651948e-02 -2.47185472e-02
      -3.01724374e-02 -1.37480991e-02 -1.92512237e-02 -3.83039797e-03
      -5.85831068e-02 1.34779466e-02 -3.09559591e-02 -1.42375585e-02
      -2.60329340e-02 -3.54995877e-02 -8.41113739e-03 4.91128443e-03
      3.81397530e-02 5.56223318e-02 4.85408977e-02 -4.21812497e-02
      -1.62481256e-02 -2.04670313e-03 -1.37636671e-03 -1.68905575e-02
      -6.96148071e-03 1.95199680e-02 3.79939526e-02 -1.43152792e-02
      3.38525772e-02 -6.83000172e-03 5.39190114e-05 -2.45115366e-02
      -6.31724671e-03 -1.65987771e-03 1.18502369e-02 -6.68660477e-02
      2.11721174e-02 -2.76205316e-02 -3.00421938e-02 -2.20842753e-02
      -1.45838121e-02 1.76606812e-02 1.07082417e-02 2.63144728e-02
      -8.10468011e-03 1.12081626e-02 -7.27405995e-02 -3.68583500e-02
      6.05523965e-05 2.51889811e-03 9.43171675e-04 -2.26065447e-03
      6.95334980e-03 5.53672574e-02 5.92448786e-02 2.11099554e-02
      2.80776322e-02 1.08052290e-03 -1.02719816e-03 -3.08128283e-03
      6.21248046e-06 1.35546625e-02 2.61947215e-02 8.41092691e-02
      1.44143142e-02 -1.95005573e-02 1.50347594e-02 3.47572975e-02
      -3.16711552e-02 -2.27239486e-02 1.56876240e-02 6.22585155e-02
      1.07795544e-01 -3.24356891e-02 -3.08480151e-02 -2.51738690e-02
      -1.50026409e-02 -6.61608111e-03 1.48287360e-02 4.49651033e-02
      6.43068701e-02 3.42292115e-02 -1.37058375e-02 -1.61582697e-03
      -1.60777848e-02 -1.34647088e-02 -2.21406426e-02 -8.80606379e-03
      1.52871292e-02 3.13427262e-02 -2.42626504e-03 -9.71503407e-02
      -3.41704749e-02 -2.20750067e-02 -6.17219973e-03 -5.75502254e-02
      -2.70600021e-02 -1.63473915e-02 6.19251886e-03 -3.15136798e-02
      -6.37313426e-02 -4.52019572e-02 -2.73868348e-02 -1.19238235e-02
      -9.48850997e-03 1.87441278e-02 1.81264561e-02 2.31150910e-02
      7.22177885e-03 -3.91753465e-02 -2.25844458e-02 3.50567768e-03
      1.38205127e-03 3.54397856e-03 -9.27232904e-04 3.76637583e-03
      4.65310439e-02 -7.34932423e-02 -9.28188488e-02 -9.15386677e-02
      -1.50707066e-02 2.46066675e-02 -2.06227023e-02 -2.22990718e-02
      -1.32377530e-02 1.47757614e-02 -2.20927764e-02 -2.43586078e-02
      -3.20847444e-02 -8.29244778e-03 -5.79050742e-03 2.08640215e-03
      1.18984440e-02 1.88618060e-02 2.00314950e-02 7.12704659e-02
      -2.44776830e-02 -8.55439994e-03 8.87289643e-03 3.19861062e-03
      -6.32879557e-03 2.77235452e-03 1.86653268e-02 4.63004634e-02
      7.85331875e-02 -3.00849769e-02 -6.89478293e-02 -7.77493715e-02
      -9.35235620e-02 -5.32996804e-02 1.58012081e-02 7.18781874e-02
      4.89433855e-02 5.34424651e-03 -5.03671616e-02 -1.21831726e-02
      -1.30784942e-03 5.75730996e-03 1.16758086e-02 4.19292711e-02
      8.11148882e-02 2.95617711e-02 1.85954757e-02 -2.52221115e-02
      -1.71282366e-02 -6.59408607e-03 -8.66900664e-03 -8.54500476e-03
      4.13601054e-03 2.36939993e-02 3.51377241e-02 -5.16548846e-03
      -1.60867311e-02 8.79452843e-03 -7.79272020e-02 -5.28401211e-02
      -5.23258038e-02 2.69412640e-02 1.59038473e-02 -3.24640274e-02
      -3.93212624e-02 4.00980096e-03 5.52530847e-02 -1.29853040e-02
      -2.29644757e-02 -8.43327306e-03 5.63299246e-02 -2.79335980e-03
      -5.92771322e-02 -5.05498275e-02 -6.05362020e-02 -2.45198850e-02
      -5.18766278e-03 -3.68187018e-03 -1.93819101e-03 6.81516621e-03
      2.12313756e-02 2.07964852e-02 -3.98600064e-02 2.53027398e-02
      -9.84430080e-04 -3.04516200e-02 -5.13883941e-02 -2.22299751e-02
      -4.12750896e-03 1.14613418e-02 -4.24064398e-02 -2.20216885e-02
      6.79778010e-02 4.55072224e-02 -7.23134400e-03 -4.03627604e-02
      -1.68717951e-02 9.72119719e-03 -1.67951137e-02 -3.35919857e-02
      1.35022411e-02 7.28901103e-02 5.01439162e-03 -2.19550040e-02
      -1.76657531e-02 -2.05308441e-02 -1.24403909e-02 1.17590912e-02
      7.74259912e-03 1.74112860e-02 9.80141982e-02 1.56598235e-03
      -5.58571555e-02 -6.26159236e-02 -4.39389348e-02 -4.95389327e-02
      -4.39299308e-02 -3.28431688e-02 -2.46102875e-03 2.91280840e-02
      -9.16928705e-03 -2.37842835e-02 -1.31194005e-02 -3.44635267e-03
      -3.76247801e-03 -1.15729216e-03 -1.64254270e-02 4.17481437e-02
      6.57489598e-02 3.06694005e-02 6.84826355e-03 6.86530396e-03
      -1.45320781e-03 -1.51743954e-02 2.97799408e-02 2.48226635e-02
      -7.46303750e-03 2.88972817e-02 -1.73411367e-03 -1.81563082e-03
      -1.64465234e-02 -2.85823792e-02 -4.06849757e-02 -8.50159582e-03
      -5.18640094e-02 -4.68737632e-02 1.03847142e-02 -3.39634530e-03
      8.38922628e-04 -9.62753966e-03 -5.55508479e-04 9.30127036e-03
      -3.16777080e-03 -7.24357069e-02 5.24308681e-02 8.66533592e-02
      1.34817250e-02 -1.36791850e-02 -3.05441879e-02 1.67427920e-02
      4.72448282e-02 1.85091961e-02 -2.85273492e-02 8.81272182e-03
      8.49780738e-02 -6.73190923e-03 -2.16758605e-02 -4.99389768e-02
      -4.84471209e-02 -5.28700789e-03 1.44310659e-02 -3.87000181e-02
      -5.53409681e-02 -3.36528495e-02 1.07534248e-02 2.24408843e-02
      4.68154857e-03 -9.75629722e-04 3.29571986e-03 9.98818316e-03
      1.93737075e-03 2.16124691e-02 4.53732423e-02 1.57223865e-02
      -2.11651698e-02 -2.38026567e-02 -5.71155874e-03 -4.75293258e-03
      3.96620156e-03 -1.46235730e-02 4.71682250e-02 2.31665429e-02
      3.10850739e-02 -1.97662991e-02 -2.14248989e-02 -1.32209752e-02
      1.57238971e-02 4.76376042e-02 8.67769271e-02 3.58391702e-02
      -2.68455856e-02 -4.75999713e-03 5.02033439e-03 -1.97696406e-03
      -9.79348645e-03 -3.61938938e-03 1.53081538e-02 2.68867183e-02
      -4.23291214e-02 3.74658927e-02 -4.33817226e-03 -2.27591791e-03
      -1.74496062e-02 3.98059346e-04 1.04592042e-02 4.80961893e-03
      -6.63539395e-02 -1.09307757e-02 -3.18463631e-02 -1.39279729e-02
      -3.48956324e-03 -1.25208385e-02 2.43292917e-02 3.58986929e-02
      2.54858173e-02 1.62935555e-02 -2.23182943e-02 -9.62370038e-02
      -2.89246608e-02 9.83805396e-03 2.28334572e-02 1.24208620e-02
      5.25359623e-03 8.21347907e-03 4.36561704e-02 -1.79005973e-02
      3.41613125e-03 7.67772924e-03 1.38117503e-02 1.44541220e-04
      -3.70448036e-03 -3.68431839e-03 1.28792110e-03 -2.14758352e-03
      -5.06545939e-02 -1.45599559e-01 -8.34864192e-03 5.13967499e-02
      3.22378986e-02 6.15965715e-03 2.44574994e-02 3.61243859e-02
      2.24221293e-02 -6.29379526e-02 -1.37430534e-01 -3.16306837e-02
      1.73715390e-02 1.75780449e-02 9.89806466e-03 1.36230560e-02
      2.72313412e-02 5.30565195e-02 1.99194569e-02 -1.85087118e-02
      -5.93271898e-03 -1.21835647e-02 -1.61008481e-02 -1.37680853e-02
      -3.34177539e-03 1.41789364e-02 2.45508272e-02 -2.82656718e-02
      -7.70050734e-02 -3.26999202e-02 -1.32876076e-02 -5.46016078e-03
      -4.46570665e-02 -2.46348344e-02 -1.65107623e-02 9.23750084e-03
      -1.57594550e-02 -2.91773640e-02 -2.15603486e-02 -1.35426242e-02
      -6.11724006e-03 -6.73501380e-03 1.82559919e-02 8.58867634e-03
      2.18518935e-02 -1.42761581e-02 -6.36909232e-02 -2.11191140e-02
      9.89582483e-03 8.39713868e-03 9.52045806e-03 3.64859612e-03
      4.01897775e-03 3.74192968e-02 -6.04997948e-02 -1.00304388e-01
      -5.79991117e-02 -1.16897048e-02 2.93823127e-02 -1.28212925e-02
      -1.85982268e-02 -2.40221401e-04 2.88359802e-02 -5.12413355e-03
      -1.46002918e-02 4.40700538e-03 -9.84279905e-03 -3.81374126e-03
      5.89108234e-03 1.88042317e-02 2.77142450e-02 3.01026925e-02
      -5.27693294e-02 -1.07181169e-01 -1.07561238e-02 2.44933497e-02
      1.28994258e-02 4.35191300e-03 8.97922739e-03 1.83927398e-02
      6.84009194e-02 -8.24290607e-03 -7.38479495e-02 3.12656630e-03
      3.64081524e-02 2.93171443e-02 3.34415119e-03 -4.86894278e-04
      2.26814803e-02 1.76915303e-02 2.23228876e-02 -1.83861107e-02
      2.56231986e-03 -7.52243865e-03 3.91443912e-03 -4.64712875e-03
      3.29736946e-03 2.43266262e-02 -1.36000719e-02 -5.58794569e-03
      -1.06537184e-02 -1.73130520e-02 -1.83400768e-03 -9.14204400e-04
      3.22973501e-05 8.04654136e-03 1.51493279e-02 1.93277858e-02
      -1.80911086e-03 5.73247951e-03 1.90785993e-02 -2.64803637e-02
      -2.68838741e-02 -2.43415404e-02 4.69847396e-02 1.16932495e-02
      -5.14929593e-02 -3.59003805e-02 2.94265756e-03 4.98043299e-02
      -1.17461309e-02 -1.79342218e-02 -4.07318724e-03 6.78940117e-02
      3.51959257e-03 -5.01829498e-02 -3.37923169e-02 -4.51378189e-02
      -1.76911019e-02 -2.42917519e-03 -1.23773643e-03 2.17813285e-04
      1.23632215e-02 3.36119235e-02 3.77481394e-02 -1.15395272e-02
      3.39386873e-02 3.07667931e-03 -3.40374708e-02 -5.02035953e-02
      -1.27038965e-02 2.76438217e-03 3.29397433e-02 -1.27060935e-02
      -1.26313372e-02 7.37697184e-02 5.36466837e-02 -6.95759663e-03
      -5.05433157e-02 -1.07835596e-02 4.05461751e-02 3.86186363e-03
      -3.14016305e-02 1.76569261e-02 -1.55708138e-02 3.14328750e-03
      -1.96520053e-03 7.53295491e-04 -2.79687508e-03 2.16547539e-03
      3.83407921e-02 2.92763580e-02 -1.50898984e-02 3.51822143e-03
      -5.83392158e-02 -5.62095121e-02 -5.51072769e-02 -2.54920870e-02
      1.69163533e-02 4.29234579e-02 -2.68711932e-02 -9.13763233e-03
      -1.27587523e-02 2.12368518e-02 -1.71227455e-02 -5.75247668e-02
      -2.03908905e-02 4.64657042e-03 -7.57301692e-03 -4.12797183e-02
      2.40867045e-02 5.78755252e-02 1.35756833e-02 1.11999188e-03
      -2.40416103e-03 -3.81929986e-03 -2.68928632e-02 1.03215752e-02
      1.47058731e-02 1.77588612e-02 1.69785414e-02 -6.98234700e-03
      -1.21434429e-03 -2.62168217e-02 -2.25991905e-02 -2.97275241e-02
      3.76101723e-03 -6.62742481e-02 -2.00009048e-02 -3.88948858e-04
      -9.28875641e-04 6.20919559e-03 -6.99327281e-03 -2.87194271e-03
      5.91904018e-03 1.59427267e-03 -4.30527329e-02 4.12239023e-02
      9.03757438e-02 2.80764047e-02 -1.11842277e-02 -3.55277956e-02
      -7.39723269e-04 2.53412277e-02 2.52759401e-02 -4.96705212e-02
      -1.52710108e-02 7.95232803e-02 -1.56195514e-04 -3.08172926e-02
      -5.68117760e-02 -7.17178732e-02 -5.43764681e-02 -5.74269192e-03
      -2.33605318e-02 -1.07282214e-01 -4.91971485e-02 5.04528219e-03
      1.70982238e-02 1.87905470e-03 -3.98735004e-03 3.71450954e-03
      1.52930077e-02 -2.22645085e-02 1.42907789e-02 1.91297755e-02
      7.21301092e-03 2.23212084e-03 -8.83201789e-03 -5.39517403e-03
      -4.31360066e-04 8.84423181e-02 3.62422727e-02 -2.48986315e-02
      -8.43081716e-03 3.25098378e-03 7.29861902e-03 2.09022174e-03
      -1.20633272e-02 -5.16761877e-02 -3.68239209e-02 -6.60523698e-02
      -4.38206159e-02 -1.47216562e-02 1.68284785e-03 8.28556158e-03
      1.96430739e-03 -3.34626832e-03 4.02844418e-03 -1.45758847e-02
      -3.93171199e-02 -1.81030575e-02 3.08604278e-02 6.37355680e-03
      2.91978265e-03 -1.11954799e-02 1.33020699e-03 6.81576133e-03
      1.57358940e-03 -5.49450815e-02 5.25622396e-03 -3.44917327e-02
      -2.94245929e-02 -4.19024238e-03 -2.93542352e-03 2.05338094e-02
      2.51205601e-02 1.62691977e-02 -9.71309748e-03 -1.35813365e-02
      -6.64476231e-02 -2.92351935e-02 2.88305990e-03 7.90592004e-03
      1.88261841e-03 1.81521871e-03 3.81745934e-03 3.93570662e-02
      -5.97519316e-02 -2.08360935e-03 5.59347356e-03 1.27363950e-02
      6.08476810e-03 -3.98317119e-03 -3.63056618e-03 7.11538922e-03
      -1.80938039e-02 -5.76506183e-03 -1.57351092e-01 -1.49898278e-02
      3.97261679e-02 3.11279297e-02 -6.86979434e-03 1.47317452e-02
      2.70855930e-02 3.77483554e-02 -3.91701274e-02 -1.19266309e-01
      4.06830758e-03 1.59967951e-02 1.47022391e-02 2.97358679e-03
      8.97247251e-03 2.22699028e-02 7.32531995e-02 -5.46500832e-03
      -1.37110578e-03 8.37956276e-03 1.35108614e-02 1.30982976e-02
      1.93064474e-03 -3.05275247e-03 -2.42349245e-02 -2.13123113e-02
      -8.35010782e-02 -1.11781366e-01 1.84164159e-02 1.30327595e-02
      1.22498497e-02 7.37033179e-03 8.85530002e-03 3.77142243e-02
      -3.73213217e-02 1.14549426e-02 -7.96738341e-02 9.65307001e-03
      3.09481216e-03 4.75796219e-03 5.36721200e-03 6.84343884e-03
      2.32375525e-02 7.14057833e-02 -9.15390439e-03 -5.66980727e-02
      -2.41313856e-02 9.82164685e-03 6.94681099e-03 6.72048330e-03
      4.04040376e-03 4.35820548e-03 3.47478278e-02 -7.91004002e-02
      -1.04279645e-01 -3.81958894e-02 6.26480265e-04 1.96261704e-02
      -7.44694937e-03 1.03054801e-02 2.09289193e-02 2.64852252e-02
      -5.06164366e-03 -2.48101112e-02 -1.77470390e-02 -1.06578786e-02
      -9.28372052e-03 -2.93580093e-03 1.29339052e-02 2.25269049e-02
      1.76365972e-02 -7.37506077e-02 -1.35179758e-01 -2.30089631e-02
      2.37327963e-02 1.31823439e-02 1.65228348e-03 8.48670397e-03
      2.20275261e-02 7.12664947e-02 -1.64207164e-02 -1.16051845e-01
      -9.69027914e-03 2.43937708e-02 1.65583342e-02 2.25803815e-04
      8.43219401e-04 1.67448893e-02 4.86126617e-02 4.77098441e-03
      -4.44689617e-02 -9.68931988e-03 -1.74514912e-02 -3.49898124e-03
      -9.64597892e-03 2.25417968e-03 2.31859591e-02 5.87729039e-04
      -1.66982021e-02 -5.32819368e-02 -7.57214427e-03 6.00740081e-03
      5.28696226e-03 4.84287599e-03 3.42721888e-03 2.64973547e-02
      6.72233701e-02 -1.06569834e-03 -4.22826223e-02 -3.86245511e-02
      1.35079967e-02 1.82049721e-02 2.86265370e-03 9.48658586e-03
      2.77147852e-02 5.42025715e-02 1.93635020e-02 -4.64369617e-02
      -2.62149293e-02 -1.01075675e-02 -3.43666691e-03 -1.21198539e-02
      -5.35003748e-03 1.20072868e-02 3.81487347e-02 -2.63591874e-02
      -4.25214730e-02 -2.10168026e-02 -5.17160445e-03 2.99756066e-04
      -1.31509779e-03 1.02873724e-02 1.87283419e-02 2.89338082e-02
      5.34733350e-04 4.16865423e-02 -4.20739548e-03 -4.18580920e-02
      -5.62322438e-02 -1.81783047e-02 -1.80318754e-03 2.69940794e-02
      1.93658341e-02 -5.22557180e-03 4.92411032e-02 3.26045714e-02
      -1.27538973e-02 -5.18712699e-02 -1.50414957e-02 1.83811337e-02
      5.32921497e-03 -1.50620500e-02 1.92506704e-02 -5.00237569e-02
      1.03456958e-04 -3.90364602e-03 3.94860981e-03 -3.68605321e-03
      2.59741675e-04 2.03730743e-02 1.67779662e-02 1.02522066e-02
      -7.52507709e-03 -9.42471027e-02 -6.39506876e-02 -7.22738579e-02
      -3.89507711e-02 7.98297755e-04 2.95570288e-02 -5.45283966e-03
      -3.33504099e-03 -9.17205121e-03 1.85696129e-02 -3.73295955e-02
      -8.44817460e-02 -2.95919664e-02 6.47130888e-04 -5.89282019e-03
      -4.23009507e-02 1.57130174e-02 -5.96603677e-02 -2.16152351e-02
      3.79053556e-04 1.53623067e-03 -5.45356516e-03 -1.97909446e-03
      1.03781559e-02 3.90851684e-02 3.40336151e-02 3.40235569e-02
      -9.26463008e-02 -7.17124417e-02 -6.88311607e-02 -4.85912189e-02
      -1.58045124e-02 2.76761558e-02 2.69643422e-02 3.39216590e-02
      8.85526985e-02 2.89442227e-03 -3.51569206e-02 -6.31684810e-02
      -3.12046930e-02 1.93278864e-03 3.59624401e-02 1.18923578e-02
      4.72918898e-02 7.88077265e-02 5.51554114e-02 -4.07271553e-03
      -3.19437869e-02 -1.26115065e-02 1.49243502e-02 1.05066309e-02
      -4.63219471e-02 1.02405576e-02 1.00055747e-01 3.85372415e-02
      -1.97432265e-02 -3.56562585e-02 -6.53930008e-02 -4.07850221e-02
      -1.30872158e-02 -3.26903649e-02 -8.33942294e-02 -3.11764050e-02
      -6.55297190e-04 1.23266401e-02 7.65408901e-03 1.61160086e-03
      1.45758968e-02 1.78620331e-02 -3.58504653e-02 3.35002057e-02
      5.64187095e-02 3.62618081e-02 6.74493052e-03 -1.24915433e-03
      -1.50785167e-02 -1.91419683e-02 9.67503116e-02 4.49404642e-02
      -3.67569588e-02 1.02218112e-03 7.78986001e-03 6.53001387e-03
      3.38238217e-02 -4.29592124e-04 -4.21934724e-02 -4.02684510e-02
      -6.95201978e-02 -7.34312087e-02 -1.28466245e-02 -3.03922687e-03
      9.56903677e-03 1.17963990e-02 5.71877696e-04 1.18751153e-02
      -2.61578858e-02 -8.26301277e-02 -1.22948288e-04 2.22068038e-02
      5.83463581e-03 3.33475159e-03 7.61534553e-03 3.66307853e-04
      -9.50746611e-03 3.70986713e-03 2.79078893e-02 1.45084446e-03
      -1.88721751e-03 1.19740460e-02 -5.17772324e-03 9.34608933e-03
      2.80816783e-03 -1.75343230e-02 -2.53784116e-02 1.23049822e-02
      -2.42622439e-02 1.17180450e-02 6.73021749e-03 4.24971106e-03
      7.50406703e-04 2.04130949e-04 -2.79487902e-03 1.53839579e-02
      -1.13717397e-03 -7.19009340e-02 -5.85708488e-03 3.60603188e-03
      7.37177394e-03 3.86322383e-03 -2.16756994e-03 3.45910224e-03
      3.26356222e-03 -4.67770733e-02 -3.07594482e-02 -1.41594440e-01
      -2.21884456e-02 3.04179378e-02 1.81122553e-02 1.94038526e-04
      2.32039262e-02 4.15884480e-02 2.28854828e-02 -2.63145380e-02
      -1.11994050e-01 -1.48815038e-02 7.87701085e-03 6.08997047e-03
      2.82250857e-03 6.55969791e-03 2.15757750e-02 8.54289383e-02
      -4.08324674e-02 -3.15058790e-03 5.12543600e-03 1.17217889e-02
      1.21313259e-02 1.84053055e-03 -1.64483499e-03 -1.27428919e-02
      -6.27265573e-02 -1.07322887e-01 -1.17315270e-01 1.68102887e-02
      2.30250601e-03 1.11280866e-02 2.37162784e-03 4.40869434e-03
      3.30031142e-02 -6.63010702e-02 -1.56329777e-02 -7.87723958e-02
      7.05591578e-04 2.96273909e-04 6.74394425e-03 4.69462387e-03
      7.41511025e-03 2.93362364e-02 6.77914992e-02 -7.39817042e-03
      1.98724004e-03 1.07566044e-02 4.55244491e-03 2.79943738e-03
      2.25359946e-03 -2.00731470e-03 2.06996612e-02 2.91804411e-02
      -4.67226794e-03 -1.22523364e-02 2.24288702e-02 8.66442639e-03
      6.75764913e-03 -6.78980164e-03 -2.51596700e-03 5.93425222e-02
      2.51425244e-02 -3.80643480e-03 -2.27754023e-02 2.57599051e-03
      3.87154520e-04 7.42311263e-03 3.32156220e-03 1.13418289e-02
      1.33434869e-02 2.27626693e-02 -7.99429491e-02 -1.27535090e-01
      -2.75031328e-02 1.44938072e-02 1.01962835e-02 1.79452670e-03
      6.90239295e-03 1.97123736e-02 4.99913357e-02 -3.20534818e-02
      -1.07630551e-01 -1.19445072e-02 1.36710480e-02 1.25354305e-02
      -7.34521833e-04 -2.88301660e-03 9.65270307e-03 2.31558979e-02
      9.43007693e-03 -4.15336229e-02 -2.15946957e-02 -2.11212002e-02
      -1.18354280e-02 -9.38787963e-03 -2.88258190e-03 8.45024176e-03
      -6.08316064e-03 -6.62519932e-02 -7.98166841e-02 -1.33504644e-02
      4.11744695e-03 1.07404152e-02 9.05944314e-03 7.03587430e-03
      2.80210599e-02 4.68039438e-02 8.08389578e-03 -4.75813001e-02
      -3.70617919e-02 1.34317195e-02 2.23651603e-02 9.61100310e-03
      7.86978193e-03 1.91943292e-02 4.85616475e-02 2.82625202e-02
      -3.70547175e-02 -4.26935181e-02 -2.19879001e-02 -1.35825695e-02
      -1.69647299e-02 -1.39693366e-02 1.04031395e-02 4.66841869e-02
      -1.71234142e-02 -5.36454841e-03 -6.30632835e-03 6.15240261e-03
      8.81634839e-03 4.74539353e-03 1.30027132e-02 3.98287401e-02
      3.57424244e-02 4.86964285e-02 7.66170258e-03 -7.87869212e-04
      7.31171155e-03 1.49263274e-02 1.79657061e-02 2.75623892e-02
      1.85223445e-02 4.39356603e-02 3.17137986e-02 2.13135611e-02
      -4.19185609e-02 -2.60266606e-02 -1.55965146e-02 1.60718942e-03
      -4.26285609e-04 8.14781245e-03 4.74984869e-02 1.63852591e-02
      -2.18223017e-02 -6.33107638e-03 -2.22343579e-03 4.54380037e-03
      2.44716561e-04 -5.39180532e-04 5.63215790e-03 1.37594230e-02
      3.47588696e-02 1.90818030e-02 -7.97337815e-02 -5.90087697e-02
      -6.41353950e-02 -3.16590965e-02 7.58127496e-03 3.96337733e-02
      1.23861069e-02 2.66143046e-02 1.80168939e-03 1.86572224e-02
      -3.79612558e-02 -8.00123662e-02 -2.73612607e-02 -5.16345864e-03
      1.56044948e-03 -1.02909226e-02 2.93810274e-02 -3.21367458e-02
      -1.11739468e-02 7.36884365e-04 4.88797389e-03 -4.31643566e-03
      -3.10980249e-03 1.05054360e-02 5.21175452e-02 6.99696317e-02
      4.02065068e-02 -7.77729973e-02 -8.06160718e-02 -6.88470826e-02
      -4.40251008e-02 -1.51615217e-02 4.04733121e-02 3.65593955e-02
      3.57916728e-02 1.28850579e-01 2.82460675e-02 -5.03283553e-02
      -8.65056887e-02 -3.75716016e-02 1.82337838e-03 3.11017763e-02
      7.25240866e-03 3.71697284e-02 9.20621399e-03 -1.41082862e-02
      -5.40245464e-03 -1.74763286e-03 1.91240886e-03 -7.26208440e-04
      -1.89114292e-03 4.81633097e-02 5.57546131e-02 4.02048565e-02
      -3.70177180e-02 -8.48606005e-02 -4.84778844e-02 1.00533594e-03
      1.13991154e-02 4.12349366e-02 2.35152952e-02 9.93483327e-03
      6.01155385e-02 -6.15348155e-03 -6.34468719e-02 -6.52602389e-02
      -2.51911767e-02 4.21497878e-03 1.15891108e-02 -1.31813791e-02
      1.03798667e-02 3.33878864e-03 -3.06432601e-03 -3.22178844e-03
      -4.59603267e-03 -9.93405655e-03 -2.06781495e-02 5.32308221e-02
      2.93173585e-02 -5.56521304e-02 -4.91809584e-02 -2.69177966e-02
      -1.45874312e-02 1.05299428e-03 -1.25128003e-02 -7.29835778e-02
      -3.95154916e-02 -7.79442787e-02 -4.47225049e-02 -1.11447526e-02
      -8.14000797e-03 -3.15679889e-03 -2.95957993e-03 -8.94105621e-03
      2.45893869e-04 -1.89444721e-02 -6.27596155e-02 -2.83255316e-02
      2.06072628e-03 -5.51441312e-03 -3.82135413e-03 5.27906604e-03
      -6.10371260e-03 -4.30402271e-02 -3.14192660e-03 -9.07469634e-03
      -4.22291681e-02 -3.13225091e-02 2.76814192e-03 -8.08144454e-03
      -2.71456502e-02 -2.75206305e-02 -8.91838148e-02 -7.92025402e-02
      -5.45365736e-02 -2.85060816e-02 1.16394795e-02 3.71596077e-03
      2.04613153e-03 -1.99835263e-02 -1.35570792e-02 -1.92113835e-02
      -6.89652688e-06 -4.75012744e-03 1.69563927e-02 2.56376970e-03
      -5.08673303e-03 2.81434826e-04 1.02340886e-02 -1.50328064e-02
      5.56208368e-04 7.85105303e-02 1.12308681e-01 8.62290189e-02
      2.97907349e-02 3.89404086e-05 1.06121991e-02 4.74738255e-02
      -2.81209443e-02 -7.99170658e-02 -2.99885124e-02 2.84373220e-02
      3.86085808e-02 1.48615818e-02 -2.76915124e-03 1.40584656e-03
      -8.82637408e-03 -1.47647783e-02 -2.30110083e-02 -1.74936485e-02
      1.94246620e-02 -5.55274151e-02 -1.00806486e-02 5.11231250e-04
      2.59577204e-03 6.73064124e-03 -8.42361653e-04 -3.03649926e-03
      -4.05135453e-02 -8.13724995e-02 -1.10603243e-01 -1.12379357e-01
      -4.17284574e-03 -1.15218060e-02 -2.84494762e-03 -6.79254718e-03
      9.21743282e-04 -1.74455401e-02 -6.14756271e-02 -5.18345870e-02
      -9.41488445e-02 -2.00716704e-02 -4.32587042e-03 -2.23585474e-03
      5.17785433e-04 3.04820598e-03 1.73552036e-02 3.10128368e-02
      -3.97228114e-02 -9.23782494e-03 1.20138330e-02 6.66590640e-03
      -8.05626065e-03 -7.46499468e-03 -1.58460829e-02 -5.15276706e-03
      -1.81188360e-02 -6.03055954e-02 -2.73667909e-02 1.65702645e-02
      1.13082426e-02 -9.55726951e-03 -2.07191259e-02 -2.23979969e-02
      1.88710801e-02 -1.31663624e-02 -1.90924909e-02 -2.14387439e-02
      -7.71002145e-03 -3.22826905e-03 1.18380028e-03 1.85493322e-03
      9.83808096e-03 2.14613806e-02 3.62478234e-02 7.41564929e-02
      1.78355053e-02 3.13149719e-03 2.13433919e-03 2.20463406e-02
      -1.08492225e-02 -1.66297313e-02 5.68342349e-03 2.57715341e-02
      8.11141655e-02 8.88332911e-03 -6.41085580e-03 3.03013343e-03
      -1.70369111e-02 -2.09183861e-02 -5.25689386e-02 4.10864428e-02
      1.46237329e-01 6.16420880e-02 6.45550992e-03 -9.34467243e-04
      -6.13398338e-03 -2.26202458e-02 -4.84286621e-03 -1.12599134e-02
      2.18624938e-02 9.96668041e-02 -6.48359805e-02 -7.83318579e-02
      -1.77395660e-02 -4.15407773e-03 -3.62085365e-03 -1.19870505e-03
      -1.60554482e-03 7.75974756e-03 1.02987941e-02 6.98858872e-03
      -8.55617672e-02 -5.14164083e-02 -9.46022104e-03 -1.55532397e-02
      -2.02967636e-02 -6.02866523e-03 3.24434577e-03 2.85602324e-02
      2.81954277e-02 -2.08479110e-02 -5.36406003e-02 -3.92481163e-02
      -3.21833491e-02 -2.20408421e-02 -2.90285684e-02 -1.20582506e-02
      3.87283675e-02 -2.51531955e-02 -1.73958726e-02 -1.19022345e-02
      -4.16957214e-03 -8.57057795e-03 -8.98826215e-03 -2.55122874e-03
      2.73838323e-02 3.58179919e-02 3.45596895e-02 7.41876708e-03
      3.93825257e-03 -2.28416547e-02 -4.06641141e-02 -8.40091985e-03
      -9.48755071e-03 2.02238606e-03 3.29426490e-02 2.14150939e-02
      3.71029484e-03 -5.01449443e-02 -6.48601055e-02 -5.05690016e-02
      -1.12692537e-02 -1.92964431e-02 -1.64174456e-02 2.41779797e-02
      3.21500339e-02 2.80372966e-02 -2.95409700e-03 -4.33135778e-03
      -3.50848772e-02 -9.48754419e-03 -2.44948305e-02 2.01023705e-02
      9.20834541e-02 2.47896221e-02 2.04038359e-02 -8.35815258e-03
      -4.52791564e-02 -4.31449004e-02 -2.36637779e-02 -3.30398642e-02
      -1.11912182e-02 3.54889929e-02 1.53404474e-02 2.15238146e-03
      -3.22987102e-02 -5.19811958e-02 -8.73999763e-03 -1.87775269e-02
      -3.10320724e-02 -3.57471257e-02 1.27916057e-02 3.92398611e-02
      -3.13535891e-02 -1.90602764e-02 -3.73262982e-03 -3.60689894e-03
      -7.20106624e-03 -4.96967882e-03 5.35685755e-03 4.96640764e-02
      8.60236064e-02 7.15722665e-02 -7.68990219e-02 -9.49834883e-02
      -7.71927088e-02 -4.68658283e-02 -2.70033572e-02 3.37401256e-02
      7.68581554e-02 1.44049861e-02 8.34681764e-02 -8.35847668e-03
      -4.69209142e-02 -7.95146674e-02 -4.06551175e-02 -2.69521470e-03
      1.39557784e-02 -8.68784636e-03 3.59945633e-02 8.50476418e-03
      -1.81314871e-02 -1.30905760e-02 -9.59785096e-03 -9.67394852e-04
      -3.91329173e-03 -8.38807505e-03 3.77757549e-02 6.85817376e-02
      5.96502870e-02 -7.23209083e-02 -9.99532118e-02 -6.11228272e-02
      -1.99932456e-02 6.84151752e-03 1.33902384e-02 -4.99582477e-03
      1.37604345e-02 6.88555613e-02 -2.32332554e-02 -8.57686475e-02
      -7.76313767e-02 -3.99556011e-02 -5.25199622e-03 4.32813261e-03
      -1.22799166e-02 1.48745822e-02 -2.09016409e-02 -4.88975784e-03
      -1.39241666e-02 1.59536730e-02 -4.51570563e-03 -4.76987939e-03
      8.42417870e-03 1.79007761e-02 1.09263167e-01 8.12607110e-02
      -1.42217129e-02 -9.01829228e-02 -2.81041972e-02 -3.70993502e-02
      -4.94607352e-02 -3.87149937e-02 6.76222844e-03 1.27410501e-01
      1.34627581e-01 -1.82161499e-02 -6.26368746e-02 -6.16342202e-02
      -2.97248717e-02 -9.61864647e-03 -1.79037899e-02 4.41688225e-02</_>
    <_>
      -3.45744118e-02 -2.80645210e-02 4.90156189e-03 5.40972408e-03
      2.58920547e-02 1.37154059e-02 -2.37915050e-02 -1.59974974e-02
      -4.78756316e-02 -5.56529425e-02 -4.67638150e-02 -4.29127589e-02
      -6.36531133e-03 -1.63292550e-02 2.28414349e-02 -8.94262921e-03
      6.09820597e-02 -5.28331362e-02 -1.61811418e-03 1.26783149e-02
      -1.10297166e-02 -2.23342385e-02 -1.26055721e-02 5.92838461e-03
      7.51441997e-03 6.67546466e-02 9.78232175e-03 -4.09705490e-02
      -9.05436557e-03 -2.24885233e-02 -3.14426087e-02 -2.66224053e-02
      -1.43087720e-02 -1.73910037e-02 1.44199496e-02 -2.86784656e-02
      -9.14838258e-03 2.41546351e-02 -6.41311258e-02 -8.17479268e-02
      -1.05971023e-01 -6.90834178e-03 7.01642688e-03 1.36256190e-02
      -4.54817107e-03 8.25803876e-02 8.82222801e-02 -1.80906840e-02
      -7.36981034e-02 -3.47574763e-02 5.75019643e-02 4.82776426e-02
      3.89519073e-02 5.95180653e-02 -4.17966731e-02 -7.81598501e-03
      -3.38044055e-02 -2.70952843e-02 -3.26547138e-02 8.03987868e-03
      2.23684032e-02 1.70621239e-02 -1.91746298e-02 2.23663300e-02
      3.53053994e-02 -3.94939408e-02 -9.27040055e-02 -7.56148025e-02
      -2.09277831e-02 -2.76696030e-03 9.32393409e-03 1.94053054e-02
      8.34487937e-03 4.11637537e-02 1.96417281e-03 -2.27324031e-02
      -2.38063987e-02 4.73798029e-02 1.87282022e-02 1.61064807e-02
      4.02180590e-02 -6.82416782e-02 -2.70551201e-02 -2.93606929e-02
      -2.80462150e-02 -4.35115583e-02 -1.02580916e-02 -7.47848209e-03
      3.49025130e-02 -5.84854335e-02 1.46314418e-02 -2.79265437e-02
      -1.27455927e-02 -1.20170996e-01 -1.48999766e-01 -4.31723483e-02
      -5.44929411e-03 4.85115014e-02 -1.01227872e-02 4.89199348e-02
      3.03280074e-02 9.73493606e-03 1.57103688e-02 1.30749242e-02
      -2.81610433e-03 -1.49646751e-03 3.31493281e-02 8.74699354e-02
      -6.18754746e-03 1.07135652e-02 -7.54635781e-02 -8.37871283e-02
      -5.75964898e-02 3.55220437e-02 2.81896926e-02 9.78689920e-03
      1.90265418e-03 1.58864222e-02 7.53895799e-03 -4.31408212e-02
      -1.33873403e-01 -1.00381017e-01 5.86506948e-02 9.22727361e-02
      9.48665366e-02 7.16601387e-02 5.76586537e-02 3.92108969e-02
      3.06076985e-02 2.60425285e-02 2.28341427e-02 -5.58426976e-03
      -1.67594338e-03 6.06359690e-02 5.09807616e-02 -2.56430767e-02
      3.47148860e-03 -4.05389778e-02 -3.49218771e-02 -4.96787243e-02
      1.03693828e-02 -9.90493130e-03 -3.06198047e-03 1.59252547e-02
      -8.48948807e-02 -3.81212346e-02 -8.47521871e-02 -1.15223870e-01
      -9.98675823e-02 9.36267246e-03 6.90286905e-02 1.23587763e-02
      -4.67855968e-02 -4.48232377e-03 4.23866883e-03 -8.63427110e-03
      9.60109464e-04 -9.59304348e-03 -3.10152546e-02 -9.18454025e-03
      6.75014628e-04 -1.82820093e-02 6.74988255e-02 1.25317061e-02
      1.89592391e-02 -2.86715552e-02 -5.37548922e-02 -1.97085310e-02
      -9.20138508e-03 6.03587879e-03 5.88087514e-02 6.08677827e-02
      -3.51387598e-02 -3.10863722e-02 -1.76459588e-02 -2.31507737e-02
      -9.80339479e-03 -3.32083064e-03 8.27237591e-02 1.24776438e-01
      3.22942473e-02 -3.59647460e-02 -5.57068251e-02 -7.14686513e-02
      -5.95699213e-02 -2.80167274e-02 1.03501827e-02 6.27526343e-02
      7.57184103e-02 4.55876477e-02 5.09689264e-02 2.05982104e-02
      -5.14078923e-02 -4.12453488e-02 2.04267967e-02 2.59549189e-02
      4.32964601e-02 4.83057164e-02 6.00157976e-02 -5.08380085e-02
      -5.21588102e-02 -7.43118748e-02 -6.69124797e-02 -6.87912405e-02
      -2.48827580e-02 6.47431538e-02 8.26266035e-02 -3.69180441e-02
      -7.20907077e-02 -6.64971024e-02 -1.10886842e-01 -1.30016178e-01
      -6.76968321e-02 -7.56743029e-02 1.74319476e-03 3.54380533e-02
      -4.89604175e-02 -1.55832963e-02 -3.88255939e-02 -5.14251292e-02
      -6.67234436e-02 -1.98329873e-02 -1.96853559e-03 -2.94575206e-04
      -1.87155977e-02 -4.51820046e-02 -5.51479384e-02 -6.09866455e-02
      -8.36257935e-02 -4.78420481e-02 -1.05415225e-01 -1.20681599e-02
      2.11814977e-02 5.43737598e-03 -3.66962999e-02 -6.31171688e-02
      -5.05936109e-02 -8.50729197e-02 -1.10592872e-01 -6.39384389e-02
      -3.68268862e-02 -3.40174176e-02 -5.66533804e-02 8.92791077e-02
      3.49725559e-02 1.47437677e-03 -4.70683677e-03 3.61385904e-02
      1.68247242e-02 1.20800184e-02 4.83330972e-02 9.07753184e-02
      -2.23986376e-02 4.12397599e-03 -3.29854563e-02 -7.26533979e-02
      5.38083352e-03 9.81038902e-03 9.00382027e-02 1.15283214e-01
      7.63065740e-02 -4.28793244e-02 -3.80659401e-02 5.47777349e-03
      -8.42905138e-03 1.57942623e-02 2.50918772e-02 8.12418088e-02
      6.37816340e-02 -2.60319933e-02 2.53322795e-02 3.62756749e-04
      -7.03503704e-03 -1.65019073e-02 -1.02266772e-02 -4.17407881e-03
      9.64184524e-04 7.13661239e-02 1.10039473e-01 -2.05057487e-02
      -2.84618121e-02 2.77841720e-03 -8.87222663e-02 -1.01181649e-01
      -6.23982735e-02 -5.92639036e-02 -3.60244177e-02 1.48462616e-02
      -1.69053618e-02 -1.26469666e-02 -1.10127153e-02 -2.63650529e-02
      -2.10295077e-02 2.18505226e-02 4.90349978e-02 2.61516422e-02
      -5.27904853e-02 1.73336882e-02 -2.54899804e-02 -4.59118607e-03
      -5.00984956e-03 -1.48957428e-02 -1.10067185e-02 2.75655277e-02
      4.83121350e-02 4.74184491e-02 -2.18232628e-02 3.62416208e-02
      1.72165725e-02 -4.77082282e-02 -7.01675639e-02 -5.70857711e-02
      -9.33864042e-02 -1.14804879e-01 -1.77259147e-02 3.62216644e-02
      2.54063448e-03 -1.92848798e-02 -7.08438875e-03 -1.96173647e-03
      -6.70737214e-03 -6.92381188e-02 -1.24459686e-02 -1.84271485e-02
      -2.39461772e-02 3.54084149e-02 -1.60591956e-02 -3.03345844e-02
      -2.48897355e-02 -1.05911233e-02 -6.15260052e-03 1.36657944e-02
      -1.29284766e-02 5.15133468e-03 3.04743405e-02 -8.46856013e-02
      -1.13786697e-01 -1.00252531e-01 1.43112149e-03 2.28174888e-02
      1.42113874e-02 -8.42234399e-03 3.40124555e-02 6.51212856e-02
      -1.66470297e-02 -5.89584149e-02 -3.31003182e-02 4.61010039e-02
      4.00502086e-02 2.64531821e-02 2.50235628e-02 -2.38750521e-02
      1.94797926e-02 -2.81627607e-02 -4.12602723e-02 -3.34696844e-02
      5.41592622e-03 3.08254249e-02 2.44399291e-02 -8.05371162e-03
      2.90944474e-03 5.04171196e-03 -6.03248402e-02 -1.04195967e-01
      -6.97315931e-02 -3.98512445e-02 -7.26005994e-03 5.96505916e-03
      3.78777343e-03 -1.56323928e-02 2.33359002e-02 -1.24927389e-03
      -2.40518451e-02 -1.79907866e-02 5.98905459e-02 2.70502158e-02
      2.16078982e-02 3.84133123e-02 1.50693813e-02 4.59133945e-02
      3.52377165e-03 -4.73099761e-02 -1.53138358e-02 -2.29077656e-02
      8.58051004e-04 2.81859003e-03 2.83451714e-02 5.90983778e-02
      2.62436587e-02 -8.07203278e-02 -1.04153194e-01 -7.16103315e-02
      -4.76614833e-02 -8.21759701e-02 -4.94845957e-03 1.09715760e-01
      4.99952659e-02 -4.86712344e-03 -1.91006269e-02 -2.20719073e-02
      -4.98295948e-03 2.96807848e-02 8.65527149e-03 1.28997983e-02
      7.89485201e-02 1.72453690e-02 4.47329544e-02 -6.05115518e-02
      -6.95649907e-02 -4.15682085e-02 3.33319716e-02 2.25566775e-02
      7.55927851e-03 -3.01319989e-03 3.35409716e-02 4.27680798e-02
      -2.97647584e-02 -1.08191818e-01 -7.58518726e-02 6.27424419e-02
      7.61152655e-02 7.39045441e-02 6.08533248e-02 4.66478206e-02
      3.84725332e-02 2.30764002e-02 2.46354938e-02 2.03377660e-02
      -7.98668619e-03 1.15223520e-03 7.34288916e-02 5.08268028e-02
      -7.10492628e-03 -5.52006718e-03 -2.75146831e-02 -3.24244238e-02
      -4.92134802e-02 2.23336536e-02 -2.41814759e-02 -5.24669141e-03
      3.85548105e-03 -7.26279989e-02 -6.72955737e-02 -9.09612104e-02
      -8.20502862e-02 -8.37423429e-02 1.48369521e-02 6.26070499e-02
      2.26525832e-02 -3.07966601e-02 2.72486098e-02 2.01553535e-02
      -4.51365067e-03 6.24337792e-03 -1.47392796e-02 -2.94282753e-02
      3.47948936e-03 2.34501623e-02 1.72760095e-02 3.57950293e-02
      -7.50183221e-03 -3.89771499e-02 -2.46790797e-02 -7.36288866e-03
      5.68234082e-03 -2.33738534e-02 -3.02216318e-02 2.94373520e-02
      -5.48789725e-02 -4.40775156e-02 -7.70958513e-02 -6.46460876e-02
      -6.61554411e-02 -8.58752709e-03 -5.78243434e-02 -3.41207534e-03
      8.77069961e-03 -6.80488534e-03 -2.17467570e-03 -6.31956086e-02
      -2.87940539e-02 -6.08388446e-02 -8.65099356e-02 -7.81661496e-02
      -1.12721073e-02 -2.55025085e-02 6.67420626e-02 8.85610580e-02
      4.42786589e-02 -9.05708689e-03 -9.12839361e-03 3.25843617e-02
      3.24919745e-02 4.17568646e-02 4.88183722e-02 8.08444694e-02
      3.20552550e-02 1.31197320e-02 2.07525175e-02 1.80934463e-02
      -2.67294701e-02 2.82941498e-02 1.19662412e-01 1.03655621e-01
      -1.71319284e-02 -1.68806333e-02 -9.80411656e-03 -4.86444272e-02
      -6.43846616e-02 -2.88749132e-02 -2.63214856e-02 2.66231075e-02
      5.03154062e-02 -8.91292933e-03 3.32924016e-02 1.55965369e-02
      -2.75757862e-03 -3.08513511e-02 -1.97815918e-03 2.10886896e-02
      2.86886562e-02 1.36103341e-02 1.21946335e-02 -2.01411103e-03
      -2.30026953e-02 -4.27673385e-02 -2.66310610e-02 -8.77002478e-02
      2.48828884e-02 6.21617585e-02 3.28153968e-02 -1.51075246e-02
      -2.57728025e-02 -2.52160355e-02 -6.20246492e-02 -7.42687359e-02
      -3.01270559e-02 -1.99373253e-02 -1.37641001e-03 -3.84798832e-02
      -1.68360979e-03 -1.74816791e-02 -2.70126183e-02 -2.42823157e-02
      -6.77824989e-02 -7.05431476e-02 -5.88115826e-02 -1.95414182e-02
      -1.76902898e-02 -1.03639150e-02 1.82712674e-02 -5.11458367e-02
      -7.18943998e-02 -1.01080112e-01 -8.62770155e-02 -4.78557386e-02
      -5.62945083e-02 -5.90660311e-02 -1.53716579e-02 -1.99255324e-03
      -5.68773933e-02 -8.52046609e-02 -7.99836665e-02 -1.99061185e-02
      9.09295119e-03 -6.75059808e-03 -1.01479948e-01 2.21356899e-02
      1.46827586e-02 4.62041795e-03 -6.28376240e-03 -2.53023836e-03
      -3.66497505e-03 8.08915123e-03 6.32444695e-02 8.24159682e-02
      -1.64377354e-02 1.81976240e-03 3.03065851e-02 -7.16530606e-02
      -9.91128683e-02 -2.17541270e-02 -4.15081307e-02 -1.85784809e-02
      2.93675228e-03 -4.78635542e-03 1.19365926e-03 4.06146143e-03
      -9.65184812e-03 -1.80784718e-03 3.61192524e-02 4.85092737e-02
      6.67615794e-04 -3.34297158e-02 5.39593287e-02 7.73221860e-03
      1.18672978e-02 -2.31606467e-03 -1.75624294e-03 4.05173842e-03
      4.09461223e-02 7.29229674e-02 3.85084860e-02 7.27804750e-03
      9.33601186e-02 5.01895249e-02 -2.04520132e-02 -4.64376062e-02
      -3.75930853e-02 -5.40433712e-02 -8.48712549e-02 -7.47886393e-03
      5.79742007e-02 1.31886527e-02 -1.09081343e-03 1.19059607e-02
      2.14969646e-02 5.29661356e-03 -6.57202676e-02 -9.96818650e-04
      1.29704373e-02 5.26852012e-02 2.60983240e-02 -4.02309597e-02
      -2.82519609e-02 -2.93305628e-02 1.46704493e-03 1.50575498e-02
      2.48042773e-02 -4.34219576e-02 5.06806783e-02 4.18417528e-02
      4.32947790e-03 -9.28750932e-02 -1.58992395e-01 -2.42653415e-02
      5.72460797e-03 8.22973177e-02 -2.65007000e-02 5.51781952e-02
      3.04900203e-02 -3.33020394e-03 -3.88220921e-02 -4.38851602e-02
      -2.96510570e-02 -8.80489592e-03 6.08775802e-02 2.96213794e-02
      2.95044265e-05 2.75108181e-02 -1.16369249e-02 -2.18379721e-02
      -2.33020354e-02 7.67673645e-03 2.44752131e-02 1.77881680e-02
      2.84906663e-03 1.55269168e-02 2.67660012e-03 -2.64986064e-02
      -5.19093014e-02 -5.81423640e-02 -1.15113268e-02 8.89357459e-03
      1.93182752e-02 3.87275293e-02 -7.46177835e-03 2.22047511e-02
      1.19974546e-03 5.17962442e-04 -1.23580517e-02 4.57306691e-02
      2.43159551e-02 1.71658993e-02 4.70711179e-02 6.97879680e-03
      6.48616999e-02 2.33332347e-02 -3.84533666e-02 -1.82291791e-02
      -2.29865666e-02 -2.85574030e-02 1.00586666e-02 1.23924892e-02
      1.04269855e-01 2.99054720e-02 -7.20961913e-02 -1.05857819e-01
      -8.53516161e-02 -5.22672385e-02 -7.96670988e-02 -2.64039002e-02
      7.94709250e-02 4.41269688e-02 4.49132035e-03 -3.65095846e-02
      -1.14508057e-02 -8.30431376e-03 3.50372344e-02 1.31044853e-02
      1.20551903e-02 3.17977108e-02 2.40870304e-02 -8.39027110e-03
      -7.38552888e-04 2.05038767e-02 -1.41026182e-02 -2.47451477e-02
      -3.82328928e-02 -1.18653886e-02 4.35862504e-02 1.23480242e-02
      6.50727050e-03 -4.25983258e-02 -3.31405327e-02 -3.44611071e-02
      -6.27728626e-02 -8.72183144e-02 -4.06763516e-02 6.20150715e-02
      -1.26791121e-02 -4.00262028e-02 -1.12893522e-01 -2.04545427e-02
      -3.93221562e-04 1.73466522e-02 1.11200577e-02 -6.76814141e-03
      -1.98593289e-02 2.61123087e-02 1.15627153e-02 -2.00445345e-03
      5.32511994e-03 -2.52363621e-03 3.93172055e-02 1.64961331e-02
      1.20620374e-02 3.10954042e-02 -2.25755689e-03 7.68489088e-04
      -2.62223575e-02 -2.72490494e-02 -1.93914939e-02 7.42195845e-02
      1.36135876e-01 7.97025636e-02 6.11348413e-02 5.08515388e-02
      3.20400707e-02 9.24475770e-03 1.74269918e-02 -6.09387551e-03
      -1.37046247e-03 1.89421922e-02 3.81778702e-02 3.70359011e-02
      4.61089797e-02 2.86386590e-02 -2.23840196e-02 -8.37132707e-03
      1.40566938e-02 3.46320868e-02 1.35609098e-02 1.63517229e-03
      4.75425422e-02 -2.85939127e-02 -3.84059958e-02 -3.30788009e-02
      -1.05529353e-02 -3.04158293e-02 4.74181920e-02 1.93627905e-02
      2.89166868e-02 -5.11166360e-03 1.73200481e-02 1.23920524e-02
      -4.20562290e-02 -8.54599010e-03 -4.16069180e-02 -5.91951385e-02
      -4.88602035e-02 9.34569445e-03 -3.95534188e-03 8.40748381e-03
      -1.10157402e-02 -5.08533493e-02 2.05324078e-03 1.69053879e-02
      1.55375320e-02 -3.07637104e-03 -2.57462841e-02 -1.18402382e-02
      -2.18433365e-02 -1.23755246e-01 -1.29098132e-01 -3.12474035e-02
      -3.07937469e-02 2.81646149e-03 4.58425330e-03 -3.52149345e-02
      -8.16735346e-03 1.80422310e-02 -6.01307862e-02 -5.68918213e-02
      -1.45543981e-02 -2.02730652e-02 -6.43195510e-02 -7.70193264e-02
      -6.13260232e-02 7.28007033e-03 2.52041779e-02 6.77385181e-02
      4.30574119e-02 2.02708635e-02 -1.09645464e-02 9.51741263e-03
      2.78187841e-02 4.37955968e-02 3.22313569e-02 1.08419247e-01
      5.04099578e-02 3.18296589e-02 5.04500493e-02 4.55381013e-02
      2.89490540e-03 7.93714300e-02 1.10355675e-01 1.07493825e-01
      3.21245082e-02 1.48836235e-02 7.54683372e-03 -2.19580457e-02
      -3.00873313e-02 -2.94969184e-03 8.63782503e-03 4.53445017e-02
      1.37117759e-05 3.93681880e-03 1.15586482e-02 1.31940516e-03
      3.50787607e-03 -4.76664752e-02 -5.58020361e-02 -5.02366424e-02
      6.49752049e-03 -9.38998535e-03 4.02481928e-02 4.76648510e-02
      1.00928324e-03 -3.05723958e-02 -4.04798351e-02 -5.12456894e-02
      5.44846570e-03 1.12353882e-03 1.71382371e-02 5.89205325e-03
      3.17722932e-02 -3.97511236e-02 -5.04782051e-02 -4.40456159e-02
      -3.06541333e-04 3.73165235e-02 3.37554254e-02 -6.51492402e-02
      1.39729707e-02 -4.35250625e-02 -3.91969644e-02 -9.08307079e-03
      -3.20369527e-02 -6.65609613e-02 -7.39695728e-02 -6.37229830e-02
      5.90872260e-05 2.29628049e-02 6.59997622e-03 -4.70760837e-02
      -2.09825151e-02 -3.28897275e-02 -7.61796832e-02 -7.18466938e-02
      -3.39288227e-02 5.01854345e-03 2.30271965e-02 3.10744680e-02
      -4.24226187e-02 -4.21871431e-02 -3.70048471e-02 -4.49782051e-03
      1.35833286e-02 4.26802114e-02 -5.28164618e-02 4.59915362e-02
      1.75637398e-02 1.80519167e-02 3.11783561e-03 -2.31054286e-03
      -2.91363290e-03 1.59311891e-02 4.00213227e-02 2.12795660e-02
      2.54707932e-02 9.62952375e-02 3.91962752e-02 -3.63338068e-02
      -7.34510794e-02 -5.81402406e-02 -7.30285421e-02 -3.64384912e-02
      -7.89978541e-03 4.48874161e-02 1.02081364e-02 -8.89307447e-03
      -1.82901882e-03 -5.94030460e-03 -2.12899428e-02 -5.89957908e-02
      1.42402994e-02 6.71768794e-03 3.86620387e-02 3.16212513e-02
      -4.18420695e-02 -3.34017575e-02 -3.67969871e-02 -4.27375687e-03
      9.80181340e-03 2.11818404e-02 -4.84555438e-02 5.92033714e-02
      3.21746133e-02 -1.82515178e-02 -1.07264027e-01 -1.74811482e-01
      -4.84100096e-02 -1.55003006e-02 6.79162815e-02 -2.28372663e-02
      6.99002668e-02 2.27321535e-02 -1.45076960e-02 -5.02167456e-02
      -5.77602722e-02 -4.56535555e-02 3.44744720e-03 8.57705921e-02
      5.31956293e-02 1.96303427e-02 1.92983672e-02 -4.81385142e-02
      -4.25494350e-02 -7.14204879e-03 3.37826484e-03 1.17713083e-02
      2.19562016e-02 -1.44505957e-02 2.72564776e-02 1.66528504e-02
      -4.00882103e-02 -3.08258105e-02 -7.99395368e-02 -6.61109760e-02
      -3.59062962e-02 4.19673808e-02 4.49418686e-02 3.00854482e-02
      3.17755318e-03 -3.41078155e-02 -1.30977342e-03 -1.14225391e-02
      -1.98610649e-02 -2.84857843e-02 5.74605241e-02 5.90796061e-02
      -2.30140821e-03 6.18934147e-02 5.29387221e-02 6.47090795e-03
      -1.55778499e-02 -2.06765849e-02 -2.76499223e-02 -2.70696823e-03
      1.90063624e-03 1.25759825e-01 2.37118024e-02 -3.17895450e-02
      -3.86998579e-02 -4.17136364e-02 -3.22876163e-02 -6.60650134e-02
      -5.12099005e-02 8.33379328e-02 4.02892865e-02 2.02551465e-02
      -9.44733340e-03 1.12488493e-02 -4.14027658e-04 2.89027058e-02
      1.47513514e-02 1.30248051e-02 4.27964330e-02 2.02629641e-02
      6.44864002e-03 4.85992767e-02 6.29241616e-02 1.51634542e-02
      -7.76387751e-03 -2.01899279e-02 -1.95130426e-02 2.24776044e-02
      4.84603504e-03 1.06682321e-02 2.95674312e-03 2.29990836e-02
      3.08597577e-03 -2.79207975e-02 -4.75057028e-02 -3.38456258e-02
      5.23592085e-02 -1.46835642e-02 -5.11152260e-02 -8.88577551e-02
      6.15065312e-03 1.55042522e-02 3.63921747e-02 2.57940050e-02
      -5.17803384e-03 -9.35680605e-03 3.81442308e-02 5.64722233e-02
      -2.28711683e-02 1.95086692e-02 3.63807492e-02 6.76333811e-03
      9.46445484e-03 -2.66376454e-02 -2.90839542e-02 -9.64139029e-03
      -3.21487263e-02 5.31099876e-03 4.20778580e-02 2.37210406e-04
      3.28940973e-02 5.65694310e-02 -4.33509648e-02 -8.96873176e-02
      -6.90991133e-02 -8.60827491e-02 -3.43995094e-02 2.54732985e-02
      -1.90497562e-02 2.47192178e-02 2.48519629e-02 3.98717299e-02
      -2.58774310e-02 6.23326674e-02 4.21186425e-02 9.03585367e-03
      -2.48637679e-03 1.15932729e-02 2.08132081e-02 1.43724410e-02
      4.30220691e-03 4.00398001e-02 5.94097003e-03 -1.30070383e-02
      -8.91389884e-03 2.15505138e-02 8.65411572e-03 4.13574204e-02
      2.71975677e-02 5.00009656e-02 9.42208897e-03 -2.66780658e-03
      4.83453972e-03 -2.43625399e-02 3.20483581e-03 -3.73029113e-02
      -4.85317037e-02 -3.03562786e-02 5.50301466e-03 -8.59750155e-03
      3.30878160e-04 -1.53858420e-02 -4.18613404e-02 2.09963527e-02
      2.82684863e-02 2.55811438e-02 8.86682235e-03 -7.65059330e-03
      4.97507048e-04 -9.33440123e-03 -1.05654463e-01 -8.49216133e-02
      1.12385014e-02 8.54017958e-03 1.46433590e-02 1.58494338e-02
      -2.97675617e-02 1.82512701e-02 1.69374384e-02 -5.50948530e-02
      -2.02201921e-02 2.13189586e-03 -1.64308902e-02 -6.53780773e-02
      -6.68881312e-02 -3.70069109e-02 2.92611662e-02 -6.65221736e-02
      -7.05911443e-02 -1.13945808e-02 3.45268436e-02 -3.15335533e-03
      1.82089843e-02 2.45993901e-02 3.83719206e-02 -3.56002636e-02
      -3.36134247e-02 -8.10577273e-02 -2.41507906e-02 6.96123615e-02
      1.69622283e-02 4.29431722e-02 3.70531343e-02 9.30872038e-02
      4.29902039e-02 2.71719303e-02 -4.65517454e-02 1.43365078e-02
      9.30229016e-03 8.40523187e-03 -1.59569401e-02 -5.56071065e-02
      7.23271817e-03 8.23982060e-02 9.92760621e-03 3.87906656e-03
      5.91934100e-03 8.48087668e-03 -3.83196808e-02 -3.10584027e-02
      -2.33989265e-02 6.14106702e-03 -4.88907658e-03 6.21969886e-02
      4.60252129e-02 -4.24168669e-02 -1.37622664e-02 -2.99669001e-02
      -2.02889144e-02 1.78192630e-02 3.68239991e-02 5.79875596e-02
      -8.09039548e-03 2.35308465e-02 -2.19437499e-02 -2.71681566e-02
      -3.87147032e-02 -3.47133097e-03 2.20341813e-02 3.62966098e-02
      -3.57495435e-02 1.25702126e-02 -5.41642532e-02 -1.03410911e-02
      1.88112278e-02 -1.72123928e-02 -5.64469658e-02 -5.57633750e-02
      -3.72632556e-02 -3.43238306e-03 3.59423421e-02 2.79960334e-02
      -1.95355117e-02 7.33054010e-03 -2.30737459e-02 -6.74614534e-02
      -6.19308911e-02 -1.48806637e-02 3.21346670e-02 1.35491285e-02
      4.78710756e-02 -1.26263900e-02 -4.63483445e-02 -2.24871449e-02
      1.18236504e-02 2.87261028e-02 5.51433899e-02 -4.20929454e-02
      2.35727448e-02 -2.57821865e-02 2.22188942e-02 3.23143490e-02
      1.41675705e-02 -2.25051567e-02 -5.53866848e-02 7.02165999e-03
      8.47763121e-02 3.24963257e-02 4.40619886e-02 5.22728525e-02
      2.72149853e-02 2.36782841e-02 -2.36056540e-02 -6.52164817e-02
      -3.35160047e-02 7.75903696e-03 -1.68400481e-02 5.08666709e-02
      4.73085195e-02 -5.17249573e-03 6.16413960e-03 1.77586935e-02
      2.00732928e-02 4.54828776e-02 -2.95524411e-02 3.25143035e-03
      3.91800031e-02 -4.62448522e-02 -3.43320780e-02 -4.03231755e-02
      -1.08559150e-02 4.65629576e-03 1.69011801e-02 -3.82499099e-02
      5.35385311e-02 2.09061559e-02 -4.73483726e-02 -1.12818673e-01
      -1.72218904e-01 -4.73144762e-02 5.76206669e-03 6.88901097e-02
      -3.00313812e-02 5.08762561e-02 1.98131353e-02 -2.58903634e-02
      -3.21366899e-02 -3.59398164e-02 -2.93407198e-02 3.20692137e-02
      6.97405338e-02 5.84631637e-02 1.35951666e-02 2.82201208e-02
      -4.26018238e-02 -5.30638993e-02 -2.50100493e-02 -7.33949570e-03
      2.56357971e-03 4.06682007e-02 -2.73759030e-02 1.22535285e-02
      4.60299142e-02 -2.00026818e-02 -2.43676137e-02 -1.01639062e-01
      -9.45086256e-02 -6.95901588e-02 3.13033797e-02 5.15121408e-02
      4.15651686e-02 2.95807868e-02 -1.65677583e-03 2.28722952e-02
      -7.03429058e-03 -2.37781834e-02 -5.16802482e-02 4.72018197e-02
      7.41056502e-02 -8.55856854e-03 1.67229567e-02 3.11652608e-02
      -1.39611680e-02 -1.71079822e-02 -1.09631559e-02 -1.20813334e-02
      3.87134701e-02 -6.49065897e-03 9.59287491e-03 4.20629196e-02
      3.40295061e-02 -9.28725675e-03 -3.33810567e-05 -1.60202291e-02
      -4.42779511e-02 4.47862633e-02 1.48216262e-02 5.94835915e-03
      2.09265649e-02 1.53450901e-02 8.52607377e-03 1.64253393e-03
      -1.62158795e-02 -6.53639734e-02 1.01598362e-02 1.89340040e-02
